solver_type L2R_L2LOSS_SVC_DUAL
nr_class 6
label 1 2 3 4 5 6
nr_feature 16960
bias -1
w
0 0 0 0 0 0 
0 0 0 0 0 0 
-0.2247667949986449 0.156967597999344 0.1322022850257247 -0.1545959848586582 0.02595984430755987 0.0298262764703876 
-0.411134288647225 -0.215026824361569 0.09196872053132853 0.07948520292637214 0.1084575179862498 0.2274684244143361 
0 0 0 0 0 0 
0 0 0 0 0 0 
0.2439101389362431 -0.05125827019402251 -0.2204876465490914 0.2407939781185392 -0.1874397148184451 -0.1968341652970398 
-0.0001508617168424388 0.0007039038667729375 -0.003964510521119244 0.004414287437617549 0.0009639464831671528 -0.00041113147407045 
0.0001406667288224795 -0.007592524944361405 -0.004570435314793427 0.01446705410048753 -7.860187367463915e-05 0.0001337549534723336 
0.000326392555266242 -0.01876941826484127 8.187143542698494e-06 0.0200538748866797 -7.030428827680183e-05 5.989430923337525e-05 
0.0005904686606022036 7.731783659356545e-05 -0.003274668338007812 0.00531978695252078 -7.757494174431177e-06 -0.0004126631074356188 
1.352755161073664e-05 -0.0001046322512564487 -6.348434318489756e-06 9.391423053955561e-05 5.822485436835975e-05 -5.040320834477883e-05 
0.0001525034628260522 -0.002931809424923429 -0.001414375786967096 0.005024348341288383 -0.0002174924331859207 0.0002654826312318794 
-9.130664711626193e-06 0.0002307296995923786 -3.132503150112186e-05 -0.0003167732051728679 -0.0002642141608585158 0.0007931918537464348 
-1.851557034299174e-05 -0.01489732141034438 -0.002476880559357357 0.01930098011255014 3.778503182772197e-05 -0.0001730306617407419 
0.0002816290830495017 0.0002312565420374023 3.622782208799113e-06 -0.0005109386564881923 -1.30032792293336e-21 -1.685709376325895e-05 
-8.821711653517649e-06 -0.0004535926203318847 -4.194436500178559e-05 0.002215898898338947 -9.217751498903085e-06 0.0001547178057469132 
-1.902505705636419e-05 0.0006045344311731532 0 -0.001692265085377843 0 2.594272709008185e-05 
0.0001544007143537288 -0.01235552947669159 -0.001037197560072163 0.01675705800337735 -6.086691693252012e-05 0.0002702631662645084 
-2.643280440131453e-05 0 -4.672245830165341e-06 0 3.998700322885717e-05 7.146840492458159e-22 
0.000439299427697251 0.005358882782528373 0.001448749140531259 -0.001559152223330497 -0.0009821546521852273 0.001386830135717048 
0.0004376544047509769 -0.0002278268235517328 -0.0001889211584625962 0.001146741257791015 -4.58943479121472e-05 0.0002966958160809639 
-0.0001713716994250021 -0.006401082687634914 -0.00153884815533696 0.008359262773988067 0.0004099357373226559 8.730388254243811e-05 
-2.849648479968996e-05 -0.0003772033565560402 -2.273668958097294e-05 0.0005765424939681482 -2.276401045745932e-20 1.516071775628847e-05 
-1.701731397739799e-05 2.191764425438052e-05 -4.672245830165341e-06 0 3.998700322885717e-05 -2.14420431972874e-06 
-2.087121412773576e-05 -0.0005253680395429984 -0.0006878749424470514 0.001146672603616456 4.102815838263017e-22 -1.135918610877451e-05 
7.356996675422661e-05 0.0001829421823674687 -0.001366033700849251 0.001605626795904271 7.874759431504823e-22 -4.921127538724716e-05 
0 -0.0002996388140545241 0 -3.271699268493305e-05 0 0 
-0.0001136960789600496 -0.002804828396413043 5.293955920339377e-23 0.002386090703771048 0 8.36213550428534e-05 
2.545063004946249e-06 -0.0003874420986307585 -1.920767542081247e-05 0.0006000540738391395 9.26442286059391e-23 -6.60359816644092e-05 
0.0008187304792164244 -0.00300884889118257 -0.001134834077656182 0.004396916659642399 -4.572207065046344e-05 -6.669890678977268e-05 
0 1.694065894508601e-21 0 0.0001756279813192742 0 0 
-6.223056893668138e-05 0.0005535912782494335 -0.0002121945655976762 -0.001302100549077189 0 8.006740935686403e-05 
0 -0.0007913167311165385 -3.442111409032839e-05 0.0005406430323177621 1.323488980084844e-23 -1.588186776101813e-22 
-0.0004595478503734576 -0.0005712859108787293 0.00159401392195631 -0.002685488947439712 -4.065808561738284e-05 0.0006006375667858054 
-1.406514911613929e-05 0.001182805092664747 0 -0.001133677615784555 3.894485600117433e-05 -3.858272482421168e-05 
-4.417023130158014e-05 -2.723635356857598e-05 0.001864416526794106 -0.003468315875381649 -0.0001378189011121577 0.001378351516869244 
0.0003670506312003007 -0.0005627846067967715 7.403993074650832e-05 0.001751506923260799 9.415526424534149e-05 -0.0004046359410624665 
-6.891336331686884e-05 -0.007894917235510272 -0.006383284045897737 0.02137824790331918 -3.215024050571927e-06 4.658135059964809e-06 
-1.694065894508601e-21 -0.0002169335889453708 0 0.0002173010382214137 0 -0.0001882641351980163 
0 -0.000391969438110661 -0.0001410776184312002 0.0009642761189198357 0 -1.694065894508601e-21 
-6.223056893668138e-05 0.0007130031173777393 -0.001189784317942508 0.0001968020339743981 0 8.006740935686403e-05 
-1.29232678938407e-07 -0.002374497486555745 6.132051581409183e-06 0.003264519642205451 -4.027665618275442e-06 2.9778502051909e-23 
1.058791184067875e-22 0 9.926167350636332e-24 0 -2.772089027818334e-22 0 
-1.474485310200349e-06 -0.002733376317121658 -2.63639004832901e-20 0.003655958698754073 0 -9.26442286059391e-23 
-4.483115726054244e-05 -9.920447697522527e-06 0 0 2.646977960169689e-22 2.075699269375086e-05 
-1.444347623370699e-05 -0.00303210345577058 -1.920767542081252e-05 0.002584805710484769 1.561716996500116e-21 -6.748192361454547e-06 
0 0 0 0 0 0 
0 0 0 0 0 0 
0 0 0 0 0 0 
0 0.0007276256931308456 0 -0.0009278366963064099 0 0 
0 0 0 0 0 0 
8.082905085876934e-05 0.0002501767147765671 9.926167350636332e-24 -0.0004632141324944888 1.463075708453168e-22 -4.921127538724715e-05 
0.0001933031397284976 -0.0002092645025128973 3.537422921007162e-07 0.0001876304774333693 -2.073447535683879e-05 2.119670942267366e-05 
-1.512068693859547e-05 -0.003737478559800406 -0.001463644254596029 0.005588394508376229 8.35175433012187e-05 -0.0002562310836084442 
0 0 0 0 0 0 
0 0.0007276256931308456 0 -0.001279092658944959 0 0 
0 -0.0003874420986307585 -1.920767542081247e-05 0.0006000540738391395 0 0 
2.066527264468501e-05 -0.00163888771334852 -1.99583258060256e-05 0.00184956359628081 -4.499862532288471e-22 -3.365319680417186e-05 
0 0.0001643979845457166 -0.0001410776184312002 -5.841317073003909e-05 0 -1.694065894508601e-21 
-1.780841617241186e-05 8.950028527114199e-05 -7.506503852130832e-07 0.0004853409843618716 1.819797347616661e-22 -0.0001882641351980164 
0 0 0 0 0 0 
-9.732931810194519e-05 -0.0005693936847461248 -0.0006377545970858345 0.004222938451227756 8.057043171462039e-05 -0.001837453325562305 
-7.740849162176007e-05 -3.3084382234173e-05 -2.588202606929221e-05 -0.0006197743136782974 6.10725705722545e-05 1.146329039365282e-05 
0 -0.0002220530189919034 0.0003931321004220415 -0.000302459047437827 0 6.88214269644119e-22 
7.204788573041192e-05 -2.620569865299751e-05 0 -2.117582368135751e-22 -2.060492171342433e-05 -3.081275836074715e-05 
0.001270330557446741 -0.01124348003210318 0.001939170988093651 0.00796595996310219 0.0001923054762271 -0.0006521419143596866 
-3.743267056272493e-06 0 0 0 0 1.852884572118782e-22 
0.0007983509056870365 0.002461397341140603 -0.0009951655552688839 -0.00289902630389899 -0.0002379660603694792 0.000339134865040326 
-4.580209589986298e-05 -0.0004782428006431624 -1.69701702896651e-05 0.0002347336283399348 -0.0001727038391266864 0.0001693873975223666 
-0.0001897570872211166 -0.00251396500889643 -0.003279530178779672 0.006561316658640685 0.0002066012879508151 -0.0002121537071509959 
0 -0.004529750741949418 -2.329340604949326e-21 0.006631391471345167 0 0 
0.0001152991134426439 -0.002380744449905534 -0.0002121945655976762 0.00308709421762651 0 -6.551529619927387e-05 
-1.915428973530259e-05 -0.000865036598072945 -1.307562383940322e-05 0.001137130689309272 -4.027665618275442e-06 2.594272709008185e-05 
8.498712834867098e-05 -0.0004719500528201008 -2.63639004832901e-20 0.0005370766154701328 6.723721448536509e-05 -2.868368231035586e-05 
0 0 0 0 0 0 
5.18807680193259e-21 0.0002501767147765671 -1.085260963669572e-21 -0.000486030732299057 0 -7.615455697306255e-05 
0 0 0 0 0 0 
-2.88687213965307e-05 -2.331765937083082e-05 -0.0002314022410184888 0.0007026324589645806 -2.486073413923931e-05 -0.0001650492805976935 
0 -2.710505431213761e-20 -0.0002154769407931518 0.001060902428624082 0 0 
0 0 0 0 0 0 
0 0 0 0 0 0 
-6.223056893668138e-05 -1.462257575310602e-05 -3.44211140903284e-05 3.566416847629265e-06 0 8.006740935686404e-05 
0 0 0 0 0 0 
0 -0.0004610443506986826 0 0.0002347336283399348 0 0 
-2.087121412773576e-05 0.0002138561376059534 -0.0002121945655976762 -6.38270308279172e-05 0 4.380748524080835e-21 
0 0 0 0 0 0 
0 0 0 0 0 0 
0 0 0 0 0 0 
0 -0.0001046322512564487 0 9.391423053955561e-05 0 0 
0 0 0 0 0 0 
0 0 0 0 0 0 
0 0 0 0 0 0 
0 0 0 0 0 0 
-0.0001141576230609657 0.0001369205873867983 1.672502425517337e-05 0 -1.810957626147631e-05 -9.503236058647919e-05 
0 0 0 0 0 0 
0 0 3.308722450212111e-24 -1.455837878093329e-22 -1.204939517710572e-06 0 
8.891556409402781e-05 -0.0003874420986307585 -1.920767542081247e-05 0.0006000540738391395 0 6.352747104407253e-22 
0 -4.235164736271502e-22 -2.38228016415272e-22 9.222565365916239e-06 2.646977960169689e-22 7.146840492458159e-22 
0 0 0 0 0 0 
6.88214269644119e-22 -0.0004610443506986826 0 0.0002347336283399348 -2.060492171342433e-05 7.364471956199923e-07 
0 0 0 0 0 0 
-0.000158201315453525 -0.00710905623121273 -0.001168092874400658 0.008873392170540889 -9.913775885802811e-06 0.0001899416100205351 
-0.0001027406260570127 -1.462257575310602e-05 -4.672245830165341e-06 0 3.998700322885718e-05 8.022312148130954e-05 
0 -0.0003874420986307585 -1.920767542081247e-05 0.0005870212443656777 0 0 
9.26442286059391e-23 -2.563939430072333e-05 -0.0009033518832402038 0.002866362735822612 0 -1.058791184067875e-22 
-1.213245791454971e-05 -0.002771402813854263 0 0.003312643356308141 -2.784544529206789e-05 5.278186652999952e-05 
0 0.0002501767147765671 0 -0.0004632141324944888 0 0 
-3.217702688636429e-06 0.0002138561376059534 -0.0002121945655976762 -7.304959619383344e-05 0 4.655272148187469e-06 
-1.474485310200349e-06 0.0001643979845457166 -0.0001410776184312002 0.000117214810589235 0 -1.574951886300965e-21 
0 0.0002501767147765671 -0.0006878749424470514 -4.170838712774931e-06 0 0 
-5.033646445569529e-06 -7.877292321419106e-05 1.058791184067875e-21 0.0004856126741797413 0 7.411538288475128e-22 
0 -0.0004775944994421867 -2.63639004832901e-20 0.0005370766154701333 0 0 
0 0 0 0 0 0 
0 -8.196881385950157e-06 0.0001809375348243657 -0.0003755086436316606 0 6.88214269644119e-22 
0 0 0 0 0 0 
0 0 0 0 -3.050872908104416e-06 5.293955920339377e-22 
0 -0.000492074349887207 -1.885393312871175e-05 0.0008693983020522255 -1.295536434144442e-07 0 
-5.141571597934535e-05 -0.00325343231080585 -0.003692690182002828 0.008127579025846737 9.803741918269158e-05 -7.470569761600902e-05 
1.058791184067875e-22 0.0002501767147765671 9.926167350636332e-24 -0.0004632141324944888 -2.772089027818334e-22 0 
-5.033646445569529e-06 8.562506133152553e-05 -0.0001410776184312002 0.0004271995034497023 0 -1.799945012915388e-21 
1.058791184067875e-22 0 9.926167350636332e-24 0 -2.772089027818334e-22 0 
0 -0.0003874420986307585 -1.920767542081247e-05 0.0006000540738391395 1.561716996500116e-21 0 
0 0 0 0 0 0 
-3.254798965785528e-05 -2.710505431213761e-20 -0.0002154769407931518 0.001060902428624082 0 4.235164736271502e-22 
-1.442824712155846e-05 -9.920447697522527e-06 9.926167350636332e-24 0 -2.772089027818334e-22 9.868105894914744e-06 
0.0002634847515922677 -0.003563329550607574 -0.001511896101148514 0.006348130272196897 0.000326966395774691 -0.0006801727313660014 
-1.902505705636419e-05 0 5.293955920339377e-23 0 0 2.594272709008183e-05 
-7.802268360463887e-05 0 0 0 2.646977960169689e-22 6.057809676781163e-05 
4.084724095935076e-05 9.317362419797304e-21 -3.44211140903284e-05 3.566416847629265e-06 0 -4.15855267994972e-05 
0.0001183404042910062 0.0003080644144553386 -0.0002491877878327807 -8.125962094643839e-05 0.0002206344876674898 -6.939049273196783e-05 
0 0 0 0 0 0 
0.0002125357923578031 0.0007177052454333239 9.926167350636332e-24 -0.001279092658944959 -2.365579462152874e-05 -2.45063049325213e-05 
-2.886872139653071e-05 -0.0002302499003778539 0.0005740696352464074 -0.0006779676910694871 -2.180986123113493e-05 1.808172756264717e-05 
1.073602652255757e-06 -0.01755087505241074 -0.001198825550581275 0.0202635077623364 0.0004767157280059792 7.924374880409507e-06 
-0.0001406900703611121 -0.008147672865731389 -0.002093136201182707 0.01184987008109743 -0.0003200495846601813 0.0004746836973205942 
0 0 0 -3.203916517048421e-05 0 0 
0.0007548911851591345 -0.01157491618063876 -0.0008259541906207978 0.01434857538218849 0.0004677101956907191 0.0007607867656907548 
-7.403989693773176e-05 -0.004411251222671709 -0.001180062369918294 0.006629372524247675 -3.505467085039739e-06 6.088526131191989e-05 
-1.058791184067875e-22 0 -9.595295105615121e-23 0 -2.772089027818334e-22 0 
-7.490384564096829e-05 -0.0001046322512564487 0 9.391423053955561e-05 0 4.827488907423309e-06 
0.0006593054964388737 -0.002472428403962137 1.735901371493185e-06 0.003704051445112107 -5.900786446834624e-05 0.0004810751098691744 
0 -0.002374497486555744 -0.001189784317942508 0.004753447164598273 0 0 
0 0 0 0 0 0 
1.058791184067875e-22 -0.0003131965148964697 -0.0001410776184312002 0.0004786634447400952 -2.772089027818334e-22 -1.694065894508601e-21 
0.0002110303054774249 1.408341761982583e-05 0 -3.271699268493307e-05 -0.0002106312744554636 0.0002061650569545827 
-3.254798965785528e-05 1.694065894508601e-21 0 0.0001756279813192742 3.894485600117433e-05 -3.858272482421168e-05 
-3.254798965785528e-05 0.0005732567387320247 -0.0004243891311953524 -0.0005153990943426015 0 4.235164736271502e-22 
-2.643280440131453e-05 0 -4.672245830165348e-06 0 -0.0001670827389404497 0.0002061650569545827 
0.0004697889247820567 -0.0007362530835934151 -0.0006971739035381035 0.001559502938151396 -9.563346734154965e-06 0.0004196500231614276 
-3.254798965785528e-05 0.0002736218708952215 -0.0003532721840288766 -3.75485363843171e-05 0 4.235164736271502e-22 
0 0.0002497254651401366 -0.0002154769407931517 -7.423429371971512e-05 0 0 
0 -2.710505431213761e-20 -0.0002154769407931518 0.001060902428624082 0 0 
0 0.0002501767147765671 0 -0.0004632141324944888 0 0 
0 0 0 0 0 0 
0 -0.000865036598072945 -1.920767542081248e-05 0.001137130689309272 0 0 
0 -7.877292321419106e-05 1.058791184067875e-21 0.0004856126741797413 0 0 
0 0 0 0 0 0 
0 -0.0003442882359975982 -0.0007070826178678642 0.0009933490543208401 0 0 
-2.888566926698056e-06 0 0 0 2.646977960169689e-22 1.088888679883614e-05 
0 0 0 0 0 0 
-6.107909202033666e-06 0.0001502683016539742 0 0 -3.561532286156455e-06 -0.0001882641351980163 
-5.033646445569529e-06 0 0 0 0 7.411538288475128e-22 
-7.637833095116877e-05 0 0 0 0 4.827488907423309e-06 
-1.26027674088162e-05 -0.0004610443506986826 0 0.0002347336283399348 3.176373552203626e-22 1.557121244455579e-07 
0.0001752651492489654 -0.000550956538152749 -4.672245830165345e-06 0.0002347336283399349 -0.0001979790571406217 0.0002930607097222048 
-5.033646445569529e-06 0.00056821385400254 -0.0002349312551786491 -0.001098421051294214 -1.598774687942492e-20 4.129285617864714e-21 
0 0.0002501767147765671 0 -0.0004632141324944888 0 -7.615455697306255e-05 
0 0.0002501767147765671 5.293955920339377e-23 -0.0004632141324944888 0 -1.509604617909276e-22 
-7.490384564096829e-05 -7.877292321419109e-05 -0.0002154769407931517 0.001546515102803822 -1.323488980084844e-23 4.827488907423309e-06 
0 0 0 0 0 0 
0 0 0 0 0 0 
0 0 0 0 0 0 
0.0001024332870345237 -9.920447697522527e-06 -2.711070826145638e-06 9.222565365916239e-06 -5.971411321577601e-06 -0.0001111264951210133 
0 -0.0003137222316743503 -2.38228016415272e-22 9.22256536591628e-06 0 0 
0 -0.0004610443506986826 0 0.0002347336283399348 0 0 
0 0 0 0 0 0 
0 0 0 0 0 0 
0 -2.710505431213761e-20 -0.0002154769407931518 0.001060902428624082 0 0 
0 -0.0003874420986307585 -1.920767542081247e-05 0.0006000540738391395 0 0 
0 0 0 0 0 0 
-8.784951545570062e-05 -0.0002471882130927289 -0.0002512879255181697 0.0001652504489937302 3.998700322885718e-05 2.04602622270537e-05 
0 -0.0004775944994421867 -2.63639004832901e-20 0.0005370766154701333 0 0 
-1.694065894508601e-21 0.0003076985977052902 -0.0002121945655976762 -9.048218631235459e-05 0 5.566925522481876e-21 
0 0 0 0 0 0 
-6.107909202033679e-06 -0.0004303033659189286 -0.0006878749424470514 0.0006937769221216497 -6.612405194260885e-06 -7.615455697306258e-05 
-5.033646445569529e-06 0 0 0 0 7.411538288475128e-22 
0 -2.710505431213761e-20 -0.0002154769407931518 0.001060902428624082 0 0 
0 -0.0004775944994421867 -2.63639004832901e-20 0.0005370766154701333 0 0 
1.356006637042263e-05 -1.44260298829248e-21 3.308722450212111e-24 3.044024654195142e-22 -1.204939517710567e-06 6.88302697110058e-05 
0 -0.0001046322512564487 0 9.391423053955561e-05 0 0 
-3.217702688636429e-06 -0.0004775944994421867 -2.63639004832901e-20 0.0005370766154701333 0 4.655272148187469e-06 
0 -0.0003137222316743503 0 -2.117582368135751e-21 0 0 
8.641091811323604e-05 0.0001876849201986745 -0.0007048451127367181 0.0004241781135446719 6.107257057225448e-05 -7.615455697306254e-05 
-1.474485310200347e-06 1.672227209568536e-05 -7.50650385213084e-07 8.950875548047098e-06 -1.670904837357116e-22 -1.135918610877451e-05 
3.486032953710206e-05 -2.509653815766809e-05 0 -2.117582368135751e-22 -2.646977960169689e-23 2.409063895866584e-05 
-8.776913501842026e-06 0 -3.44211140903284e-05 3.566416847629265e-06 0 -7.615455697306255e-05 
0.0004541189831452263 -0.0002679719983632793 -0.0009033518832402042 0.001529168287771715 -5.455211282170096e-05 -0.0001632925862262114 
-0.0001536917397064484 -0.006431990261630524 -0.000558768633317882 0.007418703463730138 0.0003338576079821086 -0.0001566320534243135 
-0.0001065433040684369 -0.007255393252630869 -0.0002154769407931518 0.008666219277023449 -8.470329472543003e-22 4.631437494452883e-05 
-7.740849162176007e-05 -0.003189585897264774 -2.588202606929219e-05 0.002986144777610185 6.10725705722545e-05 4.827488907423309e-06 
-0.0002972185956232145 -0.002690556464969122 9.379229124103576e-05 0.003654830284278744 0.001040356191628861 -6.925201138624401e-05 
0 -0.0004775944994421867 -2.63639004832901e-20 0.0005370766154701333 0 0 
0 0 -2.38228016415272e-22 9.222565365916239e-06 3.894485600117433e-05 -3.858272482421168e-05 
0.0002221718611250286 -8.470329472543003e-22 0 1.727153119010722e-21 0 -1.694065894508601e-21 
-5.943357603940845e-05 -0.0001220358199102071 6.169913282564455e-05 0.0003942708563416098 -9.482082048322238e-07 0.0003020582591635688 
-7.637833095116877e-05 4.315386263316017e-05 -1.029581964118539e-05 -6.574831330001354e-05 -1.058791184067875e-21 4.827488907423309e-06 
-1.902505705636419e-05 0 0 0 0 2.594272709008185e-05 
0 -2.710505431213761e-20 -0.0002154769407931518 0.001060902428624082 0 0 
6.488676538090682e-05 0.0002138561376059533 -0.0002058188131593776 -7.583258758613905e-05 -2.117582368135751e-21 3.880352840219608e-05 
1.482307657695026e-21 -0.0004610443506986825 0 0.0002347336283399348 -0.0002070697421693069 0.0002061650569545827 
0 0.0001784814021655423 -0.0001410776184312002 -9.113016341497233e-05 0 -1.694065894508601e-21 
0 -0.0004775944994421867 -2.63639004832901e-20 0.0005370766154701333 0 0 
-1.638960192165044e-05 -0.0003729928642608836 -4.621481957918405e-05 0.0005527981571481402 7.432817971619209e-05 -0.0001662366836602738 
0.0002221718611250286 0.0007276256931308457 3.622782208799116e-06 -0.001288279793555023 0 -1.694065894508601e-21 
0 0 0 0 0 0 
0 0 0 0 0 0 
0 -3.970466940254533e-23 -2.71107082614564e-06 0 0 0 
0 0 0 0 0 0 
0 -4.235164736271502e-22 -2.38228016415272e-22 9.222565365916239e-06 0 0 
0 0.0001643979845457166 -0.0001410776184312002 -5.841317073003909e-05 0 -1.694065894508601e-21 
-6.617444900424221e-24 0 2.646977960169689e-23 0 -1.323488980084844e-23 0 
-1.406514911613929e-05 -0.0004770552084517939 -0.001189784317942508 0.002012971308389492 1.819797347616661e-22 0 
-1.006729289113906e-05 -0.0004775944994421867 -2.63639004832901e-20 0.000505037450299649 0 1.482307657695026e-21 
0 0 0 0 0 0 
-1.474485310200351e-06 0.0002313217534469196 -0.0002090875027069877 -8.487159452641902e-05 -1.367827646275694e-06 7.543887186483612e-22 
-7.490384564096829e-05 -0.004273936952744743 1.058791184067875e-21 0.005235126462100427 -1.058791184067875e-22 4.827488907423309e-06 
0 -0.0001945508000054737 4.725633692021542e-05 0.0005533495885125116 0 1.654361225106055e-23 
-2.643280440131453e-05 0 -4.672245830165341e-06 0 3.998700322885717e-05 2.117582368135751e-22 
0.0001740544541211611 8.195124104636905e-05 -0.0002129452159828896 -0.0001060382786966357 -1.323488980084844e-23 -0.0001363786810178527 
-2.252897416716143e-05 0.0006980610554680152 -0.002418914771402338 0.004942063929236634 0.001242866386696607 1.802826053288852e-05 
-0.0002105820824561594 0.0001427227128059993 0.0004673446672214167 -0.0006678374140290224 0.001471809366093216 -0.0002586901938207852 
0 0 0 0 0 0 
6.508670934294511e-05 -2.576820128793959e-05 -0.0005622851140964724 0.0002938103004930695 0.0002777311638796468 -3.349062261128803e-05 
-1.589371739087372e-05 0 0 0 -2.646977960169689e-23 1.500500563184294e-05 
0 0 -8.37106779903664e-22 0 2.475648175794643e-21 0 
-1.589371739087372e-05 0 0 0 -2.646977960169689e-23 1.500500563184294e-05 
-1.046747378593594e-05 0.0001887595994482854 -0.0004273393964953347 0.0009647522154008176 7.619620393748023e-05 -8.770769653509015e-06 
-1.444347623370699e-05 -0.000375419289367157 -0.0001410776184312002 0.0006619331317896373 -0.0002070697421693069 0.0001994168645931282 
-2.643280440131453e-05 -0.000448920487254047 -2.387992125097786e-05 0.0006282199910786815 3.998700322885717e-05 2.117582368135751e-22 
0 -0.0004775944994421867 -2.63639004832901e-20 0.0005370766154701333 0 0 
7.352237104061234e-05 0.0001251717634963059 -0.0002116192275172498 0.001975904772646458 -1.367827646275694e-06 -0.0002051212289612751 
-1.854404050714618e-06 0 7.715377394625052e-06 -1.532234946139105e-05 -8.705520064437067e-06 2.646977960169689e-23 
0 -0.0004610443506986825 0 0.0002347336283399348 0 0 
-4.515075706667145e-05 1.694065894508601e-21 0 0.0001756279813192742 0 1.557121244455605e-07 
0.0001735098443524178 -0.001379143688599693 2.298496991414968e-05 0.001080558820293283 -1.367827646275694e-06 -0.0003324755535168683 
-0.0002116821762693159 -0.0003378895453257672 0.0001848285063692778 1.87168158576063e-06 9.507789062802403e-05 -7.534044968880912e-05 
-0.0001217411817787784 0.0001728477182558025 -4.988839859112281e-05 -0.0001943508172768127 3.757702835489865e-05 3.782195164518257e-06 
-2.940024728561853e-06 -0.0001046322512564487 3.537422921007161e-07 0.0002693442282130878 -1.295536434144442e-07 2.558996607121245e-06 
-0.0001784199496365343 -0.0005501006484856009 -0.0001234973169744031 0.001337195655090004 6.10725705722545e-05 2.066950979375687e-05 
0 4.315386263316017e-05 0 -6.574831330001354e-05 0 0 
0 0 0 0 0 0 
-2.888566926698056e-06 1.408341761982583e-05 5.293955920339377e-23 -3.271699268493308e-05 2.646977960169689e-22 1.088888679883614e-05 
-0.0001330743473553536 0.000109223886349505 -0.0002477150373754374 0.0002161642731701241 2.965454823131565e-05 4.33995634105315e-06 
-6.847563142776088e-05 0.0009226748212017363 -0.0007131388275595867 -0.0008397380195757239 9.003126993913809e-05 -0.0002688497733841146 
-2.694727042863178e-05 -0.0001604698726634673 -0.0001068281719783159 -7.536792157090773e-05 -1.482307657695026e-21 3.683161388891796e-05 
-5.033646445569529e-06 9.317362419797304e-21 0 0 0 7.411538288475128e-22 
4.608876432959331e-05 0.0003682013137710397 -0.00194032162447995 0.004791290871674421 6.68153086776643e-05 0.0001623116759563977 
5.512400766894684e-05 -0.0004125386367884265 -0.0009292339093094973 0.002119999796244933 0.0001000174265734288 -0.0001861081254155229 
-2.95444148904412e-05 6.540280771737819e-05 -0.0001410776184312002 2.900283559636023e-05 -1.058791184067875e-22 -8.290274933451711e-05 
0.0001463765797493684 -0.0005010154275251239 -0.0005202318285293684 0.0008000232329193417 6.107257057225451e-05 2.08329795645638e-05 
-9.560067250782224e-05 0.0006240085271449722 -0.00114931030320832 0.001126112491236328 5.816414522657973e-05 -0.0001354742347917132 
-0.06871287426961378 0.02944393418148869 0.03462231865683259 -0.1094563041644276 -0.002973495704465756 -0.0434520403588621 
-0.06253632773919132 0.01221545581708327 0.06746691929369203 -0.103027974988309 -0.03480654258062251 -0.005661992937914986 
0.03043597190595781 0.01447032157810784 0.05663969015247831 -0.121784988281761 -0.0208474749221577 -0.07899366954427919 
0 0 0 0 0 0 
0 0 0 0 0 0 
-0.2097919860339937 -0.04227103799691856 -0.04585653467225292 0.03394919256135712 -0.104133612962887 0.02656252833201888 
-0.2716296998465451 -0.01696215237517178 0.04942047671261793 -0.0417493363928905 0.01090426077338745 0.1835025431282553 
0 0 0 0 0 0 
0 0 0 0 0 0 
-0.043382197405527 0.06936824075314442 -0.06051085812285292 0.009924628463964196 -0.0003937966655245936 -0.07956900442073402 
-0.0002010458364580365 -0.01024997795213474 -0.003089854852570226 0.01817301396017585 -0.0001521911534196099 -0.0001773627782674259 
-4.235453174166954e-05 0.0004622094607704277 -0.005073758972293171 0.007335611483008776 -0.0006413538047655526 0.0005789800809525833 
-0.0001099926551077507 -0.000835991381757098 -0.001331725075399273 0.002345954617184663 -2.541831447432142e-05 -5.089437851945056e-05 
0.001296910769111567 0.000388766582367994 -0.002264619971942949 0.003720616609057758 -6.32980021884617e-06 -0.0006580239051187563 
6.188392127223708e-06 0.0002242517803650228 -0.0002321358013159877 5.265084970657326e-05 0 -2.302870825347629e-21 
0.0004166175892036852 -0.00508375816326229 -0.0003142332390292396 0.005458039139725533 -0.0004950502658802429 0.0001174884424964216 
0.0007530740412604628 9.31963307626914e-05 -0.0001282902261637963 3.268429339720843e-05 -0.0002710319950358096 -0.0006866334275461256 
0.0001280802723738806 -0.003591165678401832 -0.002327192658875107 0.009914404217226398 -0.0006235447644225765 7.743275992820676e-05 
-2.830023572219922e-05 -8.306677523015682e-05 -0.001054958500864866 0.00162309924858948 -1.010992798709047e-05 -3.711314582132552e-06 
-1.93575761154863e-05 -0.002056431212490462 -4.308306744872006e-05 0.001484109701195003 1.323488980084844e-22 5.823351512373315e-22 
-8.979782100929962e-05 -6.076632831667643e-05 4.235164736271502e-22 0.0004195990694915362 3.970466940254533e-23 3.290712334088127e-05 
0.0005423751600790876 -0.008012711845053725 -0.0007282407261754976 0.01149296694644776 -0.0003481461994408606 9.448876593381033e-05 
-0.0001166265886679447 -0.0002670237781569749 5.558449976473796e-06 -3.722915580033012e-06 -1.381904497783881e-05 6.758184135026035e-06 
0.003858400086488825 -0.001075057691107923 0.004290172539495825 -0.002517221163492685 -0.0007066848353080088 -0.0004482733839054927 
0.0008214906415207944 -0.0006975800718328184 0.003139321385492857 -0.00244694083000381 -0.00151726388039066 0.001008896909817512 
0.00051187795310203 -0.009113646863548652 -0.001507348845336232 0.01374043088342543 -6.079480634731531e-05 -0.0006955327221865459 
-4.60302458261649e-05 -0.002815088962860809 -0.0006862440725221021 0.004349367738741654 2.528219498354126e-06 5.62459607275495e-05 
-2.511642526587017e-06 -0.0004192655516632766 -4.292238828984257e-06 0.0002584061446281671 -4.679138546111596e-06 -8.7481572036831e-06 
-2.697855774361422e-05 0.0001316668760519396 -0.0001129895196161497 8.578207141826059e-05 3.87120526674817e-22 1.105113298370845e-21 
-2.22706340329697e-05 -0.002305386677611533 -0.001287094302180853 0.003444459090527895 0 2.466850261555423e-06 
0 0 0 0 0 0 
-3.899696010480933e-05 1.108413690731129e-05 -1.22215289071247e-06 -6.922768893001463e-05 -6.841100565179702e-05 0.0001008142432831372 
-4.917855202752882e-06 5.753785474978901e-06 -5.695750828312975e-06 9.132889857843636e-06 0 4.914250598584488e-06 
0.0003289811045090309 0.0002184175813277138 -0.0002168552246350991 -5.736160939697207e-05 -0.000439462612863755 0.0003812980600476308 
0.0003312083764973569 -0.0002522466891280892 -0.0002321358013159877 0.00049740256999199 -9.76376371090055e-06 -0.000329212679900224 
0.0003267472227761011 -0.0002841241747067655 0 -3.176373552203626e-21 -1.985233470127266e-23 3.77292933992723e-06 
9.273261440246463e-06 -0.0006674300700446112 0.0006585640110038958 -0.0005124807177148922 -3.176373552203626e-22 -9.165229700574944e-05 
0.0001633426153898096 -0.0006832953091470889 0.001209263879387711 -0.001046659432823293 3.862787253667958e-05 0.0002085086424321656 
3.176373552203626e-22 0.0001316668760519396 -0.0001129895196161497 -4.925318454261304e-05 -2.646977960169689e-23 5.624828165360588e-22 
0.002517783566731499 -0.0007171488682072956 0.002241511747322445 -0.00199477407630306 -0.000259641429899306 0.001586078729955244 
0.0007252729579370417 -0.0005009027227127616 0.000481866879423779 -0.0002061217269130571 -1.381082901512371e-05 -0.0001168419535799176 
5.932382476563332e-06 -0.004469142909620639 -0.002847341007519674 0.008967565487815358 -0.0001639951943347602 -2.770972896857213e-05 
4.116050728063866e-21 -0.001685602341091237 -0.000676295277043044 0.004553818239085734 -7.387747743611202e-05 2.503872431864938e-05 
-1.108495710233738e-05 -0.002395006267753151 -1.641126335305207e-21 0.002320439876833876 -0.0001975328570926609 0.0002117853787281888 
-1.493799131384727e-05 -6.076632831667638e-05 -7.631648406500118e-07 0.0003795116523065136 0 8.063582414128502e-06 
-2.94685852389964e-06 0.0002079132614064423 -0.0002326566861695711 0.000133481471808501 9.928151163818912e-06 -0.0003349809888685427 
0 -0.0004580990066722935 -2.646977960169689e-21 0.0004933256425987642 0 0 
0.0003367033481782776 -0.001663293173656213 0 0.002390649535146154 -7.387747743611205e-05 -0.0003078869130194591 
-1.482307657695026e-21 -9.310995117031883e-06 0 0 7.411538288475128e-22 3.191216906002469e-08 
6.373777136596415e-05 -0.0004364880853924481 0.0005649035528520819 -0.0007441895900555456 -2.80982661403495e-05 -0.0003762151517310667 
0 -0.0005604279638454335 -6.831369179522918e-06 0.0006886818476053835 0 0 
0 0 0 0 0 0 
0 -0.0004219211727010126 -9.378538238576768e-06 0.0002134142115724318 0 0 
5.293955920339377e-23 -0.002190224509737458 0.0006592840030923724 0.002089113141297509 -1.3152939024403e-06 -3.545102494604958e-05 
3.176373552203626e-22 0 0 0 -1.588186776101813e-22 3.771943593241806e-22 
0 3.388131789017201e-20 -0.000676295277043044 0.002379764381293994 0 0 
-3.695626892614438e-05 -0.0008343370082370152 0.0006612037082256594 9.535228657274786e-05 7.771221277245402e-06 3.44138951580483e-05 
8.794922689866271e-05 0.0004995852900222643 -0.001071193829179227 0.0003948024192339611 -0.0004160726250656555 9.460390522551075e-05 
-0.0001187005712160975 0.0001316668760519396 -0.0001152325915136177 -4.678329683642863e-05 2.549130797337694e-06 6.409214286773494e-06 
3.494010907423989e-21 -0.001710955167394839 -5.695750828312975e-06 0.002399782425003996 0 2.466850261555424e-06 
-3.308722450212111e-22 0 0 0 -5.293955920339377e-23 0 
-0.000100267874755284 5.193798685421638e-05 2.435219723356113e-21 -4.207007594188792e-05 -1.058791184067875e-22 6.409214286773494e-06 
0 0 0 0 0 0 
-2.026213459163554e-05 -2.465995028347425e-05 -6.352747104407253e-22 -0.0001030073742368698 4.998655178024455e-06 5.060948219822239e-05 
0.0001054120717180267 2.638155341230542e-06 0 5.260868695837256e-22 -1.374197813550326e-05 -8.156990757032189e-05 
0.000407981365991858 -0.0008894428675431677 -0.0003914765353277275 0.002571205753373887 -0.0009121382911198945 0.001074006178625854 
0 -0.001739949473256308 0 0.002408707541711963 0 0 
-8.558891602838592e-06 0.000125526360258442 -0.0001129895196161497 -5.684752691408216e-05 -1.3152939024403e-06 8.080313342973468e-06 
0 0.0001703842767230979 -0.0002321358013159877 0.0001072384814518084 0 -2.109310562010221e-21 
0.001332856014281994 -0.0001103062926665256 -0.000101638609991456 -0.0001017131759932825 -0.0001694256014182974 -4.63890568936138e-05 
-8.558891602838592e-06 0 0 0 3.970466940254533e-23 8.080313342973468e-06 
0.0007258919941086475 -0.001214835977968661 0.001990587935733908 -0.001628204665487737 -0.000573139490058016 0.0004419747729788902 
0.0007372630063283549 -0.0006086795727696523 -1.740650954123016e-05 0.0004750939819503649 -1.32988679637602e-05 4.100141300773512e-05 
-4.3976895592785e-05 -0.004399114781188178 -0.002159831438357976 0.007462480369841606 -0.0001975328570926609 0.0001073846057281893 
-4.603899568922659e-05 5.961818021255999e-06 -0.001054958500864866 0.001281078070400602 3.970466940254533e-23 3.464376058996247e-05 
-4.064361237029543e-06 -0.0004082577053177481 -4.589880500624463e-07 0.0004812247818014497 0 -1.429368098491632e-21 
5.293955920339377e-22 0.0002037443681287001 -4.589880500624566e-07 -0.0003343425483963226 -9.763763710900551e-06 3.48969848252531e-07 
3.895461322489797e-05 -0.0001732650388153548 -6.831369179522945e-06 0.0002508024941357931 0 -0.0001547888124694566 
0 -0.0001377969979942467 -6.831369179522932e-06 0.0003459795798271206 0 0 
-8.218052100694974e-07 -2.032879073410321e-20 -0.000676295277043044 0.002244729125333119 -9.763763710900551e-06 3.48969848252525e-07 
0.000134573529606763 -0.0002368932716187012 4.235164736271502e-22 0.0005811339682223059 0 -0.0001231308164539198 
-2.034181491231147e-05 0.0001760818808789336 0 -0.0003095342060233759 7.940933880509066e-23 1.616062668594694e-05 
0 0 0 0 0 0 
0 0 -5.733485816775937e-05 0.0002502393605129447 0 5.823351512373315e-22 
0 0 0 0 0 0 
0 -0.0001271384895986788 -3.244336094795195e-05 0.0001337768816905739 -8.271806125530277e-24 0 
0 -0.0001761269433020248 0 0.0002065268317865058 0 0 
0 -0.0007988732753728467 0.0006661153722718945 -3.968296938812559e-05 0 8.470329472543003e-22 
-4.06436123702954e-06 -2.435219723356113e-21 1.588186776101813e-21 1.933027599754834e-05 -2.646977960169689e-23 9.785402382325722e-06 
0 -0.002429235300413872 -0.000119820888795673 0.00223288823303201 0 0 
0 -0.000422630965851186 -4.308306744872011e-05 0.0004797315292466759 0 5.823351512373315e-22 
3.176373552203626e-22 0 0 0 -1.588186776101813e-22 3.771943593241806e-22 
0 -0.000422630965851186 -2.646977960169689e-21 0.0004752676360329513 0 0 
0 0 0 0 0 0 
0 0 0 0 0 0 
0 -4.235164736271502e-22 1.588186776101813e-21 1.933027599754834e-05 0 0 
-3.22403170663428e-06 0 -4.308306744872006e-05 4.463893213724791e-06 0 -5.293955920339377e-23 
-3.785138953808013e-05 -0.000182263151138583 9.637011887446523e-06 0.0001784045951430399 -6.329800218846213e-06 3.527662077387737e-05 
0 0.000216088823536776 -4.354205549878258e-05 -0.0003333586752317514 0 5.823351512373315e-22 
-4.632211430296955e-23 -6.076632831667638e-05 -2.964615315390051e-21 0.0003746071364358012 -2.864611162434712e-06 0 
0 0 0 0 0 0 
-4.235164736271502e-22 -0.0001184628217797465 -6.831369179522932e-06 0.0001776160611702494 0 -3.507245797224837e-22 
0 0 0 0 0 0 
0 0.0001316668760519396 -0.0001129895196161497 -4.678329683642863e-05 0 0 
0 -0.0001377969979942467 -2.108315989856202e-05 0.0004591896788716517 0 0 
-0.0001551468492876396 -0.006572443869617454 -0.001476323781896295 0.01088803781964656 -0.0004004496765629818 0.0004041412214720399 
-4.462794374084023e-06 1.106920078795172e-05 4.782202248006734e-06 -2.756890804432434e-05 0.0001437647885819664 -3.1316303828411e-05 
0 -0.0017044814324352 4.235164736271502e-22 0.002568206836456578 0 -0.0003295616497484769 
4.235164736271502e-21 0.0001813472857510976 0 -0.0003508875680898625 -7.387747743611202e-05 2.750557458020477e-05 
-8.558891602838592e-06 -0.000572717063759342 -7.237242345106964e-06 0.0003530226790554421 3.970466940254533e-23 8.080313342973468e-06 
0 -0.002643660108378995 0 0.002009199798844581 0 0 
-1.006914764032338e-05 -0.0003762423095216601 0.0006661153722718947 -0.0005124807177148922 -1.058791184067875e-21 3.795716408813891e-05 
0 0.0001316668760519396 -0.0001129895196161497 -4.678329683642863e-05 0 -0.000329561649748477 
0.000113524201239435 1.087100739593807e-05 -0.0006835325193881505 0.002208865554158392 0 -6.147967551330557e-05 
0 0 0 0 0 0 
0 0 0 0 0 0 
0 0 0 0 0 0 
0.0001484898963896356 -0.0001070505565685692 -6.831369179522932e-06 0.0002134142115724317 3.22931311140702e-21 -0.0001073581518281339 
0 0 0 0 0 0 
6.188392127223708e-06 -9.701741157414423e-06 0 0.0002651307365093782 0 2.646977960169689e-23 
1.14019221697179e-05 3.639594695233322e-22 5.558449976473796e-06 6.432220905328325e-05 -2.633512369897216e-06 -6.238778438549969e-06 
-9.993447684070602e-05 -0.001774828352907397 -1.182996268107226e-05 0.002366765223431336 -1.376432439297798e-05 0.0003635277919321214 
-1.171395960721298e-05 0.0002339535215224371 -0.0002537945464595775 -6.54608713858524e-05 0 8.063582414128498e-06 
5.227781471335135e-22 -0.0007067551405579511 -2.646977960169689e-21 0.0004752676360329512 -9.763763710900551e-06 3.489698482525314e-07 
-2.946858523899641e-06 0.0003464661576020308 -0.000232656686169571 -0.000332391205120073 9.928151163818912e-06 -5.419339120065208e-06 
-1.505568310923556e-05 -0.0001377969979942468 -6.831369179522932e-06 0.0002134142115724317 3.970466940254533e-23 5.044922270350874e-06 
0 0 0 0 0 0 
5.823351512373315e-22 2.638155341230542e-06 -1.2753900182178e-05 5.208195625471546e-06 -2.646977960169689e-22 -8.714766629666385e-05 
0 -0.000422630965851186 -2.646977960169689e-21 0.0004752676360329513 0 -7.940933880509066e-23 
0.0003691769807172826 0.0002571615666139874 0.0002140572879174842 -4.210741756621944e-05 -0.0007714836724831964 0.0007665998889286541 
-6.822505185799257e-06 -5.608932596555923e-05 -5.695750828312982e-06 0.0004030703022911928 -3.978214424602697e-06 -5.293955920339377e-23 
-0.0001111346947494943 -5.143129925240205e-05 8.31016676394326e-06 7.264563831104747e-05 -1.65638173585825e-05 -6.742934978882764e-05 
-2.430199499298342e-06 -5.978967255151148e-05 9.637011887446522e-06 5.705751945141932e-05 -6.329800218846214e-06 1.063213288087857e-05 
-0.000159960692728401 -5.029148150894823e-05 -3.287473226667083e-05 3.858553553986207e-05 -3.469073688324661e-06 0.0002256621849181024 
0 0 3.705769144237564e-22 -2.646977960169689e-23 -8.069242157041488e-06 -1.857037575851782e-06 
4.140755246918874e-05 -7.419115674662254e-05 0.0003119783221902839 -0.0005464883935068426 -1.876907211896364e-05 -3.670676458091688e-05 
-8.367722467613183e-05 -0.0001376079688839808 -0.0002321358013159877 -5.097923574016258e-05 -2.098818471965183e-05 6.134421100148438e-05 
-2.613425186865019e-05 -0.007089248688628504 -0.003855603831413427 0.01530383174215705 -8.025970882980324e-05 -4.804749608180002e-05 
-0.0002225533175438324 -6.522346636803074e-05 -0.0009729087323665869 0.0009124466734755662 8.791105689316364e-06 -0.0002388786705594923 
0 -0.0004517209392905183 -0.0006971952577471967 0.002913717000405668 0 0 
-2.214895740938241e-05 -0.001616766299504244 -0.0002057332666985884 0.002399482492779543 -0.000916077379412896 0.001084863148212156 
-2.030995412614885e-07 -0.002123418555383181 -0.001045321488977421 0.004174564149624034 -6.329800218846213e-06 -3.970466940254533e-23 
-1.19114008207636e-22 1.43732605334377e-05 -4.589880500624571e-07 -1.661257786341946e-07 -8.602678370551488e-23 -5.293955920339377e-23 
0 -1.323488980084844e-23 0 0 0 0 
0.002955612256886294 3.852150021312231e-05 0.0006551357517350484 -6.479631494031902e-05 -0.0003250705745385892 -0.002703175023086331 
0 -6.35692447993396e-05 -0.000676295277043044 0.002436821900745415 0 0 
-1.006914764032338e-05 0 0 0 -1.058791184067875e-21 3.795716408813893e-05 
0 0 0 0 0 0 
0.0001011496198014884 -0.001589165879872938 4.235164736271502e-22 0.002453252577852395 -9.763763710900551e-06 1.537756691854343e-05 
1.588186776101813e-22 -4.235164736271502e-22 0 0 0 -5.22878887808956e-06 
2.471809090426397e-06 0 -3.970466940254533e-23 0 0 0 
6.188392127223705e-06 -9.701741157414429e-06 0 -2.469887706184391e-06 0 -5.22878887808956e-06 
0.000451722313311314 -0.0009549018075301851 0.001395841828651513 -0.0007791131961845475 -0.0004230050692876184 0.0003093214196549623 
1.230305517216164e-05 -0.001387597673411299 -0.001287094302180853 0.003708748245797931 -3.33309108198442e-06 -4.063088218602137e-05 
-4.367513634279986e-22 -4.235164736271502e-22 1.588186776101813e-21 1.933027599754834e-05 -3.260158042239525e-06 5.757177063369073e-22 
0 -0.0004226309658511861 -2.646977960169689e-21 0.0006078330042876415 0 0 
1.588186776101813e-22 -0.001690490206682867 5.293955920339377e-23 0.002380411961594087 0 -5.22878887808956e-06 
0 1.399122575233199e-05 0 -7.767685845879462e-06 0 0 
0 0 0 0 0 0 
0 -0.000211594984123133 0 0.0002245848383523183 0 0 
0 0 0 0 0 -0.0003295616497484769 
2.471809090426397e-06 -0.0001183003650816133 -0.0002321358013159877 0.0003331391450248954 0 -2.531172674412265e-21 
-5.029258124322408e-22 7.17510542054889e-07 -2.606248378274137e-07 -4.748016716054379e-22 0 9.785402382325719e-06 
0 -0.0001377969979942467 -6.831369179522932e-06 0.0002134142115724317 0 0 
0.0002093280024242009 1.933417621450039e-05 4.235164736271502e-22 9.193782653552784e-06 0 -9.656736920693088e-05 
-4.603899568922659e-05 -5.480451029542045e-05 4.235164736271502e-22 0.0003470382283914767 3.87120526674817e-22 3.464376058996247e-05 
0.0003435114316695184 0.0001760818808789337 0 -0.0003095342060233758 0 -2.422435521446033e-06 
-1.28134993587908e-05 -2.451761728960039e-06 -1.284049694233412e-06 4.904515870712643e-06 -3.498481840589841e-06 -6.091684744269834e-07 
0.0004166285157805825 1.067941763023193e-05 -8.459395235819418e-06 4.037101023325432e-05 6.274647826312224e-06 -5.810699221838068e-05 
-4.632211430296955e-23 -0.002371115240435967 -4.308306744872004e-05 0.001380518478906668 -2.117582368135751e-22 -1.857037575851782e-06 
-3.057011521591684e-05 -0.001713442366438691 -1.456991824095546e-05 0.002409699836048974 -2.488667304132442e-06 9.112760212287384e-05 
0 -0.0001761269433020248 0 0.0002040569440803212 0 0 
9.345150553608092e-05 -0.0004226309658511861 -2.646977960169689e-21 0.0004752676360329511 -4.599124205794834e-22 8.063582414128507e-06 
-4.632211430296955e-23 -3.546804082110788e-05 -1.058791184067875e-22 1.805800656581247e-05 -2.117582368135751e-22 0 
-4.632211430296955e-23 0 -1.058791184067875e-22 0.0001300954805485046 -2.117582368135751e-22 0 
0 -3.546804082110788e-05 0 1.805800656581247e-05 0 0 
8.632411320849025e-06 -0.000422630965851186 1.927402377489304e-05 0.0004752676360329513 -2.102233513245906e-05 1.252010953303914e-05 
0 0 0 0 0 0 
0 0 0 0 0 0 
0 -2.796412799916441e-06 -5.695750828312975e-06 9.132889857843636e-06 0 0 
0 -0.000422630965851186 -2.646977960169689e-21 0.0004752676360329513 0 0 
0 0.0001316668760519396 -0.0001129895196161497 -4.678329683642863e-05 0 0 
0 -8.999725064576941e-22 -7.237242345106935e-06 3.563262014117583e-05 0 0 
0 0 0 0 0 0 
0.0001152459184130172 -6.196693501692323e-05 -2.162593536637672e-06 2.125936904923703e-05 -2.646977960169689e-23 -0.0004350541558154568 
-1.875860020750629e-05 -0.001704481432435199 -2.606441057769507e-05 0.002424433458305967 -5.520111359703786e-06 -0.0003357516279048979 
0 0 0 0 0 0 
0 0 0 0 0 0 
-1.085260963669572e-21 7.940933880509066e-22 -7.237242345106935e-06 3.563262014117583e-05 0 -1.058791184067875e-22 
0 0 0 0 0 0 
0 0 0 0 0 0 
0 -0.0002465490849722526 -2.646977960169689e-21 0.0001657334300095756 0 0 
-8.908151687489447e-05 -3.546804082110788e-05 -1.323488980084844e-23 1.805800656581247e-05 -2.864611162434711e-06 1.063285191711952e-05 
-3.396707401919613e-06 -0.0001095007677806035 -6.831369179522932e-06 0.0002134142115724317 0 -3.05367743474651e-05 
-0.0001113714139637215 -0.0005672631922377295 -2.849011432311223e-05 0.0006673373443654653 0 0.0001432932519315244 
0 -4.235164736271502e-22 1.588186776101813e-21 1.933027599754834e-05 0 0 
0.0002093946024485578 1.93341762145004e-05 -2.689991352022446e-21 2.852405865110115e-05 -9.007971210265553e-06 -0.0001611980267562302 
-1.006914764032338e-05 3.310709727543837e-05 0 -2.812223664346594e-05 -1.058791184067875e-21 3.795716408813891e-05 
-1.711778320567718e-05 0 0 0 7.940933880509066e-23 1.616062668594694e-05 
-2.678382621191775e-05 -0.0002211645761392289 -0.0002343788732134557 0.0004446186030842204 2.549130797337695e-06 8.080313342973464e-06 
0.000787186329166048 -0.0003726607887648134 0.0003331717247778449 -0.0007850170325452399 -1.933123632297139e-05 -0.0001063060051448471 
0.000270484466262764 -0.008035741425812587 -0.001192245877943001 0.01308128816679899 -8.545985511611809e-05 0.0001077993739200411 
-0.0001723114140900915 0.000150383255739779 6.280847072492594e-05 -0.0002757615858257526 -2.848102848907591e-06 7.49813688120539e-05 
-5.293955920339377e-23 -0.002086991065729202 -0.000676295277043044 0.003623253598732251 0 -5.228788878089563e-06 
0.0005766985118136737 -1.397808455938635e-05 -1.340596543757645e-05 0.0003799786565237119 2.603709305263129e-05 6.622963990708318e-05 
1.088432483960233e-06 -0.0002007418311624074 0 0.0002040569440803212 -4.715489771788896e-07 5.022689193886045e-05 
0 -0.0005604279638454335 -6.831369179522918e-06 0.0006886818476053835 0 0 
-6.822505185799259e-06 -9.926167350636332e-23 2.646977960169689e-23 0 -3.978214424602697e-06 -5.315732121776641e-06 
8.503988857215067e-05 -0.0001475232299990072 -1.477019190530395e-05 0.0002147794155843956 4.832078406673352e-07 -0.0001230681922378381 
-1.171395960721298e-05 -4.235164736271502e-22 0 0 0 2.834793536038945e-06 
0 -0.001528399551556264 -7.237242345106937e-06 0.002116747949263958 -8.602678370551488e-23 0 
0 0 0 0 0 0 
6.155121079304165e-06 1.067941763023193e-05 -4.589880500624571e-07 -1.661257786341959e-07 -2.911440044364957e-06 -1.063227771349624e-05 
-2.686111202021793e-05 -0.0003018560411388501 -4.499862532288471e-22 4.499193305573503e-05 -1.058791184067875e-21 5.55954744750774e-05 
2.845501307182415e-22 3.207580246147128e-05 0 -5.293955920339377e-23 0 -3.545102494604959e-05 
-5.908241438378043e-05 -4.591458778327471e-05 0 1.805800656581247e-05 0 -5.358000854227506e-06 
-0.0001061920740381189 0.0003303368529639808 -0.0003349039540736787 -7.399520883117257e-05 -2.330050501534244e-05 0.0001188499653361785 
-9.777769222297648e-06 -0.0007703243853572907 -2.29757686942729e-20 0.0005310841836243587 -3.646651987244406e-08 -1.068122876720589e-05 
-5.924128858031508e-05 -6.07663283166764e-05 -2.165874514358933e-05 0.0003890607835980651 -3.461642761899125e-07 6.87245068554547e-05 
0 0 0 0 0 0 
-2.415866722514214e-05 0 3.970466940254533e-23 0 2.646977960169689e-23 3.41071872050574e-06 
0 2.462696585534094e-06 4.235164736271502e-22 -3.090076726271218e-06 0 0 
0 0 0 0 0 0 
0 0 0 0 0 0 
-8.558891602838592e-06 0 -2.646977960169689e-23 0 3.970466940254533e-23 6.223275767121684e-06 
-7.229169485010748e-05 2.117582368135751e-22 0 -2.469887706184391e-06 -6.88214269644119e-22 6.452061133512767e-05 
-8.218052100694957e-07 -6.356924479933941e-05 -1.058791184067875e-22 5.705751945141927e-05 -3.639594695233322e-23 -2.249931266144235e-22 
0 -4.235164736271502e-22 1.588186776101813e-21 1.933027599754834e-05 0 0 
-3.441071348220595e-22 -0.0004158704845927301 -1.619950511623849e-20 0.0004614831820107889 1.323488980084844e-23 -8.694324368707684e-08 
-1.108495710233738e-05 0.0003166957209367597 -7.237242345106935e-06 -0.0005653777853397641 5.470204155203341e-06 9.696201193912772e-06 
-8.558891602838592e-06 -2.796412799916443e-06 -5.695750828312977e-06 9.132889857843637e-06 -7.543887186483612e-22 8.080313342973468e-06 
0 -8.893845946170154e-21 0 0.0001325653682546891 0 0 
-6.424132486270244e-06 -1.91035525418429e-05 -0.0002321358013159877 0.0007486888328843679 -9.763763710900556e-06 7.820114716798982e-06 
-0.0001396769311882455 2.911898673653055e-05 6.749500682499191e-05 -8.908360626466109e-05 0.001304156776123686 -0.0006130545761600006 
-0.0001355033478987161 8.186336151797341e-05 0.0002066821907788536 -0.0002431394505626636 0.0007183285881940354 -1.65955139913992e-05 
-3.7480104086388e-05 1.93341762145004e-05 0 -3.579815040218226e-05 -2.646977960169689e-23 -0.0003029982025014875 
0.0001750137611398946 -0.001539844591543392 5.823215294427388e-05 0.002044795279009935 -0.0001504276626101626 0.0002216391406427521 
0 -0.0004226309658511859 -0.0007193783444917652 0.002713723537835572 -8.602678370551488e-23 -2.80579663777987e-21 
-1.171395960721298e-05 0 0 0 0 8.063582414128502e-06 
0 0 0 0 0 0 
-0.0002317369179076729 -0.002018686741272313 7.913615771176839e-05 0.00236981647929121 2.500405607462093e-05 5.834561713787592e-05 
0 -4.506242309164392e-08 4.235164736271502e-22 -7.122244563154996e-05 0 0 
1.534811547024444e-05 0.0002376473644256428 -0.000235263461143818 -7.747989038358757e-05 2.921325690948638e-06 -2.793489271869254e-05 
0 -0.0003264744423229965 -0.0002389671704955106 0.0006087673290572682 0 -2.104347478334902e-21 
0.00025632806731 0.0001785445774644677 -7.237242345106935e-06 -0.0002769916626084711 1.07359698291156e-05 6.435217271422507e-05 
-6.617444900424221e-24 0.0003262781083652126 -0.0001186852704444628 -0.000421150692024054 0 -8.470329472543003e-22 
-9.214114383110431e-06 -3.863118916095646e-05 -0.0002353891353880364 -8.277768852328259e-05 7.618979488977941e-06 -9.681158789962764e-07 
-2.067336277069069e-05 3.752091258540534e-21 4.268251960773623e-22 4.499193305573496e-05 7.247305847896406e-06 1.085697046309164e-07 
-6.712747760267647e-05 -3.225253128448028e-06 -0.0004794562414428918 0.0005426878930331411 3.610273328083833e-05 0.0001077005625521442 
-0.0004411494892120837 8.263036529037721e-05 0.0003916576266705864 -0.0007219818310436972 -9.617576594390263e-05 -8.970925903039672e-05 
-9.76243074192182e-05 0.0001013492154771912 1.707958133863608e-05 -3.448504979224633e-05 1.559146177203202e-05 6.919213020346906e-05 
-2.057909388579314e-05 -0.0003762423095216601 0.0006844996138572143 -0.0005230122983207047 1.314656954880405e-06 7.42640003141274e-06 
-0.0001867216131634383 -1.080045073313743e-05 0.0001228113762686269 -8.558021540413029e-05 -1.85978603206677e-05 0.0001327106096313378 
-5.568570698186077e-05 -1.308470230339736e-05 -1.058791184067875e-22 0 0 7.16466259657622e-05 
0 -9.903728562044714e-05 -4.308306744872006e-05 9.890969522850501e-05 0 5.823351512373315e-22 
0 -7.940933880509066e-22 -1.908086240790004e-06 0.0001146593840719798 -3.14329005373517e-06 -7.940933880509066e-22 
-4.106026925999899e-05 -0.0002832009130307041 2.382533329707098e-05 0.0006331655448654022 -1.892917575632922e-06 4.796394798933201e-06 
-7.960340582450528e-05 -0.002073210200237755 0.000677856279041767 0.001832151211981513 -0.0003483707371858695 -0.0007237471701268302 
-6.253680174590118e-05 0.0001457944855408686 -0.0001138111707436993 1.301044028021348e-05 -9.181166417842237e-06 -0.0006554169849079821 
-6.822505185799259e-06 -0.0002841241747067656 -1.969284377815533e-06 1.933027599754833e-05 -3.978214424602697e-06 -1.852884572118782e-22 
0.00014815957352894 -0.0002104254691898302 -4.324476844244346e-05 -0.0005268202590110257 -5.072490799220958e-05 7.637243036734501e-05 
0.0001466593086181878 0.0003582877164784417 -0.0003500704527771365 -0.0001075336651656304 -5.570018564204252e-06 0.0001806583842544955 
5.514275511216221e-05 0.0002819655401096657 -0.000122269422405437 -0.0002416789002234423 -6.949194986968786e-06 -2.111439996867132e-05 
-7.944597293171812e-05 -0.0005135419761713609 -0.0002472599923111531 0.001381619503666068 -9.882631677811666e-07 4.124119743344198e-05 
5.646779520101752e-05 0.0006938548850905615 -0.0009506631446008836 0.001046320800728669 -1.408035959617404e-05 -0.0001275553067447419 
-0.07740150936109841 0.05478151337148764 0.04890928659713534 -0.1191387739038387 0.0812595737245914 -0.0520380834040038 
-0.1000150563987791 0.05611741116288484 0.05186121158987696 -0.09037670767095722 0.05821083625753614 -0.03684895832622021 
0.004103396893288802 0.0520377244582876 0.03414058386263697 -0.1027825244184689 0.08450626214656819 -0.09765227987988515 
0 0 0 0 0 0 
0 0 0 0 0 0 
-0.2906375728444823 -0.02738007194487083 -0.1416796714753941 0.001867912872081285 0.1170494560657655 0.187656528016751 
0.3302091120674506 -0.0658822563184802 0.03235920373993071 0.02538250126388911 0.02694098871053361 -0.4110172474339059 
0 0 0 0 0 0 
0 0 0 0 0 0 
-0.09626246466775937 0.04014027596581479 0.04264543213503325 -0.001960918130972049 -0.06050904147121683 -0.0898853042496725 
-0.001484862315748301 -0.002309572913953922 -0.001771132407488416 0.006862122725159495 -1.414786955981204e-05 -0.001670143085426483 
-0.002781855934205699 -0.00327949298702501 -0.003843184955349331 0.01031994987927425 -3.703828298374513e-05 -0.001460380970012317 
8.368244040508269e-05 -0.001331480482264496 -0.00147332298163772 0.00405692858386929 2.850470317051087e-06 -0.0002645661052522968 
0.0009303467798832241 -0.001172714936214434 -0.0004789857112242729 -0.002972982584786551 -5.255750198882111e-05 -0.0008247431890115179 
8.409425638308889e-07 -0.0003238144723761008 -1.10998897066671e-05 0.0005842067028776634 -2.366490494365865e-06 -4.491558966264702e-06 
-0.0008088548971007458 -0.002025458076188205 -0.003164870151283258 0.01067970380855252 -4.096276038552322e-05 -0.002435870330906276 
-0.0003466068520933745 -0.003895407905584792 -0.0002900678851844034 0.004225955856516751 4.88114110684191e-05 -0.0003035575666462718 
-0.001282308893492702 -0.008631964959613747 -0.0005917929005601839 0.01446094267061183 -6.443706812217056e-05 -0.0009846919481801464 
-1.743276733621415e-05 0.0001509645761975254 -4.350970022028926e-22 -0.0002978930507410598 -4.647278984588154e-07 -0.0002254906780115993 
-1.460191892861023e-05 -0.002673674068902808 5.149106865053053e-05 0.003863163565481274 -2.655886900978595e-05 -8.303835607665875e-05 
-0.0001247627768881286 5.082197683525802e-21 0 0 -1.832457287415069e-05 6.828709604138829e-06 
-0.001014094424723034 -0.004985958581199116 -0.001822774041212805 0.01054793991149734 -9.13395839042883e-05 -0.0009407067234019652 
-5.405719442810912e-05 2.333065629498887e-05 -0.0005172309339240784 0.001790397826725308 8.96663784007482e-22 -0.0006656853228681739 
0.002080943807517989 0.0002025104556155908 -2.094382315327078e-06 -0.0001788776790551682 -5.589530108777901e-06 -0.002874389459353631 
-0.0004216730845368684 0.00144550387179157 -0.0004345393004698196 3.632668290806235e-05 -5.957258240398974e-05 0.0001355903829228051 
0.0002797559111204843 -0.002606408623111422 -0.002006604447811126 0.005348638702178788 -2.599394037539455e-05 -0.0004460724179264175 
-8.951476051447552e-05 -0.002410962171878906 -1.499078314448878e-05 0.003556546420270699 -7.515068616695001e-06 -0.0004387373226405961 
5.012597420662714e-07 -4.443549779190612e-05 -3.126589183067804e-06 0.0002664103159795579 -1.027952975098057e-06 -1.109448371696384e-05 
-7.571669150143092e-05 -0.0002947267598613518 -2.646977960169689e-23 3.008328218721691e-05 -3.765066644064777e-06 1.245210571724405e-05 
-1.698490818944662e-06 2.031182149945064e-05 -1.032754043024259e-05 3.318799785857677e-07 -1.058791184067875e-22 3.109083180168315e-06 
0 0 0 0 0 0 
0.0001549581999328937 -0.0001198070128088277 -0.0002391786906126808 -9.205816129835083e-05 -1.739260193023519e-07 8.70872427210787e-06 
-1.649869112227011e-05 0.001168500327831293 -0.0002321073577526352 -0.002170211205100974 2.646977960169689e-23 5.04203923783111e-06 
0.0001392205331301038 0.0008670331605529313 -0.002002755945826693 0.0006780943567727848 -6.682872670516331e-05 -0.0003945837221521472 
-1.588186776101813e-22 -8.039355090260049e-06 -7.753266836642814e-06 5.3304609885397e-05 -6.788118046165679e-07 1.455837878093329e-22 
-1.110903562658716e-21 0.0005111602270765166 -0.0004784950446341621 2.245564414279551e-06 -6.788118046165704e-07 -7.157513491998416e-08 
2.888235741146071e-05 0.0001106262680976917 -0.0001232616552041852 1.331550599172867e-05 -1.832457287415069e-05 -2.250108804093142e-05 
0.0005613808024999455 -0.004775689946004837 -0.0002384131960807335 0.005729921517060768 -1.23398291398629e-05 -0.0002641621270634199 
-4.162665815486476e-06 0.0004283837164726887 -0.0003479171347838034 -0.0001309830386407936 -7.416770214260151e-06 -8.303835607665873e-05 
0.005274280829963328 0.0006005385676197823 0.0001615317948783835 -0.0002859186562152713 -0.0002921394799932877 -0.003065179253765705 
0.0004282086353070188 -0.0002030536450337835 -0.0002227316593583255 -4.413223222229411e-05 3.691608347076665e-05 -0.0008516508787202332 
-4.979177924970164e-05 -0.006195157863681622 -0.00358124827849568 0.01301721753381564 2.750224286188334e-05 3.924766134661786e-06 
4.718060495169634e-05 -2.938090326824998e-06 -5.955700410381799e-22 -1.168455116121027e-05 -4.601025190640497e-06 -8.231225519960819e-06 
-4.686753025031692e-07 -0.002205590243661816 -0.000558469151295925 0.005112910156195646 -5.293955920339377e-23 -2.785944303078597e-21 
-1.698490818944662e-06 -0.0003069992262705425 -2.646977960169689e-23 -5.886878983417387e-20 -3.755399980990746e-22 -8.94881348958059e-08 
-2.356517839646641e-05 2.08932692584628e-05 0 3.366131905155447e-05 -8.046964584105305e-08 5.391548938037182e-05 
0 0 0 0 0 0 
1.272107092635031e-05 0.0001650224045823301 0 -0.0002390014250362452 -4.381218699792161e-06 -0.0002600288135553782 
0 0 -1.033975765691285e-23 1.058791184067875e-22 0 0 
1.027883706755531e-05 -0.0002706220302855528 -1.341625016438907e-05 0.0004191280511781049 -5.293955920339377e-23 -5.74963428735542e-06 
0 0 0 0 0 0 
0 -5.434085450428145e-05 8.470329472543003e-22 4.877444073265119e-05 0 0 
0 0.0002371301988243725 -0.0002352877971748592 -8.099961714169509e-05 0 1.477344574019707e-21 
9.287316110628284e-06 0.0001267989234964088 -2.38228016415272e-22 3.390208048661011e-06 0 -0.0001588604477014763 
2.646977960169689e-22 0 0 0 -7.341142597392632e-06 2.623821606162167e-07 
3.989740682214504e-06 0.0003220685220109816 -0.0003479171347838033 -0.0001055532574496408 -7.590696233562522e-06 3.251877608555326e-05 
-6.721708284587935e-06 -2.539558930696847e-06 -7.753266836642812e-06 3.744271576682637e-06 4.069728613760896e-22 5.713033348438723e-07 
-0.0001639262785684417 0.0007243972368204239 -0.001133558979678867 0.002833156708487128 -6.304979961489474e-06 -1.637262059336411e-06 
2.646977960169689e-22 1.323488980084844e-22 -1.828246775899395e-07 0 1.050858030823759e-05 -0.0004415955248499358 
0 -0.0005979651266509099 2.170521927339145e-21 0.0003051647248127744 2.646977960169689e-23 -0.0004447561530599929 
0 6.617444900424221e-24 -7.755064761070502e-07 4.983829989688628e-06 0 0 
-5.164777390150984e-06 0.0008878737058383897 -0.001217117921239858 -0.0004804220141998561 1.323488980084844e-23 6.6451320082748e-06 
0 -3.014061404304138e-06 -6.139058847343432e-06 8.504682375467462e-05 0 0 
3.383847215100462e-06 -0.002398815913678503 0 0.003364500216786454 2.646977960169689e-22 2.057293912409941e-07 
1.451606029882104e-05 0 0 0 -1.273858143331663e-22 -5.78894919448981e-06 
0.001101989401769962 6.760652609382162e-06 0.0003385433383631108 3.23333160818436e-05 -0.0001485221807503989 -0.001368444699415463 
-8.172891652771998e-06 -8.039355090260049e-06 -1.067062990193406e-22 4.95603383087144e-05 -2.926151416906335e-22 6.785849493775113e-06 
-4.690347946532795e-06 0.0008890872950747707 0 -0.002065426398225915 -7.341142597392632e-06 7.04823165439133e-06 
0 -0.0005776212565560949 -2.02649326991357e-05 0.0004989015280974753 0 0 
0.002327274887141959 -0.002621358901655069 0.0001315468739732178 0.004353054428928997 -0.0001453994887514073 -0.002438969777105884 
0 -0.00269881218873819 2.170521927339145e-21 0.003701859596450347 0 0 
0.0007273565156122555 2.64862102869821e-05 4.287210788408949e-05 0.0001251168626767198 -4.340606636649676e-05 -0.001171665214251 
-5.241578840783682e-05 0.0009039832986717984 -7.166017774658576e-05 -0.001848072459997004 -3.210957447389531e-06 4.505856240395635e-05 
0.000175211070566659 0.0002547010775686829 -0.002377348557731643 0.004994319630667126 2.697766849780444e-20 -0.0001089536120901259 
1.490249845723189e-05 0.0009659935959274496 -0.0001126293376089441 -0.002066635378992362 -8.234296135635321e-06 -3.608132225920745e-06 
5.630783968706471e-06 0.0008890872950747708 0 -0.002065426398225915 -1.273858143331663e-22 2.599498774920139e-06 
1.644824764641888e-05 8.660144076733422e-05 -5.087837495307548e-07 -3.781472732035354e-05 -7.416770214260151e-06 -7.992927289649057e-05 
-5.061123236834451e-06 7.940933880509066e-23 -6.617444900424221e-22 3.390208048661011e-06 -5.329364305110076e-06 3.290461139095807e-05 
0 0 0 0 0 0 
0 -6.986902744616957e-05 -0.0002352877971748592 -8.099961714169509e-05 0 1.477344574019707e-21 
1.451606029882104e-05 0 0 0 -1.273858143331663e-22 -5.78894919448981e-06 
-6.352747104407253e-22 5.838770552957152e-06 -1.370957297971958e-05 -9.390295594415173e-06 -6.788118046165666e-07 -1.250697086180178e-21 
0 -0.0005706183053452462 -1.34162501643891e-05 0.0007564874308420046 0 0 
0 0 0 0 0 0 
0 0 0 0 0 0 
0 3.176373552203626e-22 0 -8.737887010113204e-07 0 0 
0 0 0 0 0 0 
0 -8.039355090260049e-06 -7.753266836642814e-06 5.3304609885397e-05 1.472381490344389e-22 0 
0 4.317882797526804e-22 -6.848682534746706e-06 1.495969944142746e-05 0 0 
1.058791184067875e-22 -0.0004393711499882865 -0.0001286198613669331 0.000725917931845196 3.176373552203626e-22 -1.720535674110298e-21 
1.682411298366779e-05 -0.002398815913678503 0 0.003361150958807562 -7.416770214260152e-06 -3.608132225920745e-06 
0 0.0008890872950747707 0 -0.002065426398225915 0 0 
0 0 2.117582368135751e-22 0 -8.175259213751353e-07 0 
0 0 -1.370957297971958e-05 1.420466865783782e-06 0 7.940933880509066e-23 
0 -0.0002999962750596925 2.170521927339145e-21 0.0003373593796639 0 0 
0 0 0 0 0 0 
0 -0.0002706220302855529 -1.341625016438909e-05 0.0004225182592267656 0 0 
-2.563639182280819e-05 0.0001568684297356949 -2.38228016415272e-22 -0.0002356112169875842 4.764560328305439e-22 3.070175824837064e-05 
0 0 0 0 0 0 
0 0 0 0 0 0 
0 0 0 0 0 2.646977960169689e-23 
1.074751237005848e-05 -3.192917164454687e-22 0 3.970466940254533e-23 0 -1.852884572118782e-22 
0 0 0 0 0 0 
0 -3.01406140430414e-06 -6.139058847343432e-06 9.843715073507645e-06 0 0 
0 -3.01406140430414e-06 -8.713332440943219e-06 2.25181715482472e-05 -2.646977960169689e-23 0 
-4.911396581692436e-05 -0.005725481492413168 -0.001783210971572833 0.01278207869740768 1.149607460451909e-05 -0.0002425175050618684 
-7.577083392870649e-06 -2.523626174877289e-05 -3.126589183067791e-06 0.0002168499776708431 1.75071065999633e-07 -2.807646648343805e-07 
-7.603045415933907e-05 8.153974846635254e-06 0 0 0 -0.0002484175068929115 
-2.717940958915945e-06 -0.0005524362772200833 -1.367064203915449e-05 0.0007257564036725908 -8.046964584105348e-08 9.772411740370513e-07 
0 -5.434085450428145e-05 8.470329472543003e-22 4.877444073265119e-05 0 0 
0 -0.0005706183053452462 -1.34162501643891e-05 0.0007564874308420046 0 0 
-2.059923672116558e-05 -0.000291842300213057 2.170521927339145e-21 0.0003373593796639 1.720535674110298e-21 -0.0002231164698782271 
-3.721326928026256e-06 5.082197683525802e-21 0 7.432931998015565e-05 -2.154892921717263e-06 2.559898803182384e-06 
3.176373552203626e-22 -0.003004338677256996 -0.001217117921239858 0.003777222654758011 -9.790065472779321e-06 1.494981458066064e-05 
2.670786663334012e-05 -0.002398815913678503 0 0.003364500216786455 -7.304004808843234e-22 -1.013265679221548e-05 
0 -8.039355090260049e-06 -2.646977960169689e-23 4.95603383087144e-05 0 0 
0 0 0 0 0 0 
-1.04223866967368e-06 1.788464302668897e-05 -2.38228016415272e-22 -1.608684807283644e-05 0 1.32902640165496e-05 
0 0 0 0 0 0 
-2.712322929964249e-05 4.171283831388434e-05 -5.293955920339377e-23 2.542978119115297e-05 -3.308722450212111e-23 -7.37444328531691e-05 
1.814673846536353e-05 0.0002546118760026399 -0.0002352877971748592 -0.0001150799022899968 -7.416770214260151e-06 -9.40931154316456e-06 
-2.17885563137188e-05 -0.002506641746329946 -9.403119454502614e-06 0.00228857813717606 5.652496801906987e-06 -0.0003876530772957124 
-6.279334179515184e-05 -3.54963831445291e-06 -3.106326689767209e-06 0 3.851072788442014e-05 -1.615582195434863e-07 
0 0 0 0 0 0 
-4.6903479465328e-06 -0.0002786613853758132 -1.341625016438904e-05 0.000468688389486819 -7.34114259739263e-06 6.958743519495533e-06 
0 0 0 0 0 0 
0 0 0 0 0 0 
-8.299411596301779e-05 0 0 0 -1.323488980084844e-23 1.316469941829656e-05 
-1.378557978982434e-06 0.000377407728860656 -0.0003479171347838033 -0.0001589546468120206 -1.932335352134397e-06 3.24337975139598e-05 
0.0007853644186088426 0.0001661560943251293 -8.000319378419079e-05 -0.0002831478069951672 7.455238127096824e-06 -0.0006805266340691404 
-1.078643518769148e-21 -0.0003122256919173147 -1.370957297971958e-05 4.810674914444766e-06 3.044024654195142e-22 1.791299997581372e-08 
0 -0.0005776212565560949 -1.341625016438907e-05 0.0004191280511781049 0 0 
-2.56363918228082e-05 -0.0002377609939693813 -2.646977960169689e-23 -1.081076246019899e-05 -3.705769144237564e-22 -4.881795373726327e-05 
0.0001533833796446852 -8.816692222237453e-05 -1.720406668131032e-05 6.614012419023924e-05 5.235480743390087e-06 -0.0004025768798499143 
-2.108318684032969e-05 -5.688041343497829e-05 8.470329472543003e-22 4.877444073265119e-05 -1.058791184067875e-22 -1.599082754097548e-05 
-8.145750490898179e-05 0.00021735928918209 -0.0002440688652979252 -5.857628242531616e-05 1.519287341879822e-05 3.732265924784393e-05 
-3.941390452087629e-05 -0.0002319127625009211 -0.0003639076585417917 0.000691088444963555 -6.788118046165641e-07 1.912081383644855e-05 
-0.001412756337203544 0.003310288410642109 -0.002980062199468319 0.001182034265929771 -3.155083397946568e-05 -0.001026715560728514 
-0.0001761271270201025 -0.003486276499683787 -0.001421359186424859 0.004606596017159851 -1.502996266679484e-05 -0.0004234468976680976 
0 -0.00299662899663934 -4.054207330849769e-05 0.002878182051526482 1.952146245625145e-22 -7.943022385073816e-05 
0.0007886351317774847 0.0002236337869035117 -8.28126397767291e-05 -0.0001438149566308982 0.0001282105929518494 -0.001060861272217965 
1.598927351115332e-05 0.0002546118760026399 -0.0002352877971748592 -0.0001117306443111086 -5.329364305110077e-06 -1.399381679581954e-05 
-2.563639182280819e-05 -0.0001079347857008987 -1.370957297971958e-05 -0.0001166658358950231 5.293955920339377e-23 3.070175824837064e-05 
-1.740113289068268e-05 -3.492590672977129e-05 -5.955700410381799e-23 3.217035831752275e-05 0 4.537754902199067e-05 
0.0024672170059517 -5.702459396169972e-06 1.021255046192899e-05 -0.000211615566893867 3.727299339618002e-05 -0.002449108930742467 
-2.563639182280819e-05 0.0008890872950747706 0 -0.002065426398225915 5.293955920339377e-23 3.070175824837064e-05 
6.770266518593393e-21 0.0006146292989084572 -1.10998897066671e-05 0.0006294124660159116 3.639594695233322e-22 3.218725199566341e-20 
0 0.0003683773541813312 -0.0003479171347838034 -0.0001276337806619054 0 8.470329472543003e-22 
0.0001313941020439424 -1.609362599783171e-20 -4.197022746826067e-06 -8.737887010113229e-07 5.924240255599159e-06 -0.0006540719090248522 
-8.88527633011458e-06 0.000148829074645435 -2.646977960169689e-23 -0.0001894410867275308 -1.323488980084844e-23 8.388447969409949e-06 
-1.580710162527124e-05 -0.0001815349757759436 -8.811039969028352e-05 -6.021625711402729e-05 7.05034071823618e-06 -1.608039110803086e-21 
-2.206745076175924e-05 0.0001243187330870883 -0.0001187683964562875 -3.083772337704749e-05 -8.175259213751352e-07 -4.4915589662647e-06 
-0.0004441869402401061 -9.639323953308705e-05 5.655650486054556e-05 1.746503329732006e-05 -4.059753379162428e-05 -0.0005124823459759821 
3.04941962061401e-05 -0.0004778533212402574 -0.0005584691512959251 0.002970485039036411 -2.154892921717265e-06 -1.081637360399879e-05 
3.281547774262444e-06 2.651205185759215e-05 7.527343574232552e-23 -6.205189331952853e-05 8.347459373673356e-06 -1.013265679221548e-05 
-2.553625759570089e-05 0 0 0 -1.323488980084844e-23 8.594177360650952e-06 
2.571253525570473e-05 -0.000279398891165335 -1.341625016438907e-05 0.0004191280511781048 0 -5.895329701174799e-06 
-6.551270451419979e-22 0 0 0 -1.323488980084844e-23 0 
0 0 0 0 0 0 
-4.686753025031726e-07 0 0 0 -5.293955920339377e-23 -3.308722450212111e-23 
-1.323488980084844e-23 -6.238020959454137e-05 1.270549420881451e-21 9.833477904136557e-05 4.797647552807561e-23 0 
-3.717337737499604e-06 -0.0003069992262705425 -2.574273593599772e-06 1.26744564747395e-05 9.636654136242772e-22 2.909193253699665e-05 
-3.441071348220595e-22 -0.0002786613853758131 -1.341625016438904e-05 0.000468688389486819 -6.617444900424221e-24 1.323488980084844e-23 
0 0 0 0 0 0 
0.0001941027535399718 -0.0002124447772730585 -1.323488980084844e-22 -3.073102716941345e-05 -5.329364305110077e-06 -0.0002214461280464905 
0.0002718968234223219 -0.0002587594819552738 -1.341625016438907e-05 0.0004191280511781048 -4.235164736271502e-22 -0.0001458829611673845 
-5.106222059656252e-06 0.0002371301988243726 -0.0002423928816858624 -7.642924890349253e-05 1.946701736912487e-06 1.477344574019707e-21 
-4.985684447450938e-06 0.0001953192185971014 -0.0001762610419514524 -0.0001285451313228435 7.201400690241849e-06 6.73430446388671e-06 
0.0002109798996938648 -4.208781633411367e-05 2.471864244012453e-05 9.206743307482101e-05 -2.233946375186824e-05 -0.0003695950107993016 
0 -0.004854986743265599 -0.0005646082101432691 0.008643304069088878 0 2.117582368135751e-22 
7.509816212922511e-06 5.293955920339377e-23 -3.890893437821654e-06 6.260070045543498e-07 6.617444900424221e-24 -1.258005838871426e-06 
0 -0.0003543371295639739 -0.001217117921239858 0.001895935095741442 0 0 
-9.407071630305787e-06 0.0002299246716603468 -0.0002373361892330127 -5.556983595054205e-05 -3.478749362350461e-05 -0.0002474641935095929 
0 5.929230630780102e-21 0 7.520310868116699e-05 0 -0.0004447046080301048 
0 -0.0005706183053452462 -1.34162501643891e-05 0.0007564874308420046 0 0 
0 1.419306303262278e-05 0 -6.563220283118354e-05 0 0 
-8.09520392064194e-05 -0.0002611797081975453 -1.367265214064549e-05 0.0004379573623174053 1.129175815537356e-06 7.327426533871109e-05 
0 -5.434085450428145e-05 8.470329472543003e-22 4.877444073265119e-05 0 0 
-2.098677879915429e-05 0 0 0 0 -2.646977960169689e-22 
0 0 0 0 0 0 
0 -0.000361340080774824 8.470329472543003e-22 4.877444073265137e-05 0 0 
0 0 0 0 0 0 
-5.106222059656252e-06 0 -2.564019762563415e-07 0 1.946701736912487e-06 0 
1.682411298366779e-05 0 0 -3.349257978888202e-06 -7.416770214260152e-06 -3.608132225920745e-06 
-3.590840617558643e-05 -0.0003046215566017795 -6.139058847343413e-06 0.0003164720675679939 -2.514629062161204e-22 2.728913911632e-05 
-1.454183516868223e-21 -1.323488980084844e-22 1.438437168382504e-05 7.279189390466644e-23 2.096942315810334e-05 -1.704217313944635e-06 
0 5.929230630780102e-21 0 7.520310868116699e-05 -1.48892510259545e-23 -5.552034010440932e-08 
0 0 0 0 0 0 
-1.242147603943353e-05 0.0008347464405704896 -4.235164736271502e-22 -0.00201665195749326 -6.78811804616567e-07 4.689842818677766e-05 
0 0 0 0 0 0 
0 0 0 0 0 0 
0 0 0 0 0 0 
-4.812224074225388e-06 -0.0003480100081403152 1.233491729439075e-20 0.0003861338203965515 0 -0.000437918758536329 
-2.098677879915429e-05 6.339946174820438e-05 -1.109988970666712e-05 0.0001948104045283514 5.293955920339377e-22 -7.943022385073812e-05 
-3.602993629440247e-05 -8.039355090260049e-06 -2.646977960169689e-23 4.95603383087144e-05 -1.371993624484335e-06 3.179134532758988e-05 
0 5.838770552957153e-06 -1.866502799615883e-06 -3.214972807016375e-06 0 0 
5.119351220672398e-05 -1.258153216900703e-05 -5.663658885932281e-05 5.466781647724651e-07 -3.838118042246048e-22 -1.032321404466179e-21 
1.984481029014082e-05 7.003509468968414e-07 -1.114311144626276e-05 2.113446465072986e-22 1.946701736912487e-06 -2.250108804093141e-05 
0 -8.470329472543003e-22 -1.109988970666711e-05 0.0001914201964796904 0 0 
-1.448013070880361e-06 -0.0003462969720627713 5.068015249497069e-05 0.0003538825888834742 -2.154892921717262e-06 9.573003275475551e-07 
0.001179820363805468 -0.0006302825128100265 -0.0003018461424969807 0.0003974695198506775 -2.173371311045157e-05 -0.001774500331365081 
-9.833884809272962e-05 -0.0001433305631865557 -0.000568020257669838 0.003049546721169956 -3.118646201163713e-05 -8.186817654355653e-05 
-0.0001186427777150404 -9.443938793551114e-05 -3.28318876502946e-05 -0.0001312525323525619 7.488789115357681e-05 -0.0002349829451169236 
1.322625481695742e-06 0.0008700651069169594 2.451893791866056e-05 -0.002072267914693356 0 -4.168990287267259e-22 
0.0002642955930261998 0.001119277703306881 -0.0001706716591625844 -0.0002205248614066222 0.0002140086970959853 -0.001277646095781572 
2.778450343433606e-06 -0.002738033037146678 -0.001217117921239858 0.003886516750428007 0 0 
0 0 0 0 0 2.646977960169689e-23 
-9.464144878036037e-06 -9.216137577938624e-06 -7.753266836642812e-06 3.744271576682637e-06 -8.100320119591218e-07 1.546125038471376e-05 
-0.0001548647186822112 -3.973274535127391e-05 6.800044913049455e-05 -3.807225474668355e-05 0.0001889921760406768 -0.0001236469084386545 
0 -0.0001501307965348477 0 -0.0002390014250362452 1.058791184067875e-22 0 
0 0.001082312965091457 0 -0.002172701938526523 0 0 
0 0 0 0 0 0 
-5.164777390150984e-06 -0.0001190350162103584 -0.0001260455877733332 0.0003724938876578942 -6.788118046165679e-07 6.645132008274801e-06 
0 -2.972597852458e-05 -3.890893437821654e-06 3.922702868463578e-05 2.646977960169689e-22 1.323488980084844e-22 
1.652877648274965e-05 -0.002659974058168183 -1.420325933915457e-05 0.003778520956735218 -8.941813286348807e-07 -3.608132225920743e-06 
-1.985233470127266e-22 3.229534597312978e-06 3.57342024622908e-22 5.952725069655479e-06 0 -0.0002531937583417982 
-0.0001507214151222176 4.561824817083683e-05 -6.139058847343432e-06 6.49445709461945e-06 -8.443434057481493e-06 -0.0006599929249298819 
-3.739648050217718e-07 -0.0005622081471749832 1.110268775427149e-05 0.0006408840365972167 1.029742562227934e-05 -2.490245318286756e-06 
5.832157810783571e-06 -5.434085450428136e-05 -0.0005605175433540788 0.001979663029123631 9.214792023840728e-22 -0.000407513426364178 
-3.180960679503802e-06 0 -6.617444900424221e-24 0 0 8.469768124839146e-07 
0 0 0 0 0 0 
0 -5.434085450428145e-05 8.470329472543003e-22 4.877444073265119e-05 0 0 
0 0 0 0 0 0 
0 0 -1.033975765691285e-23 1.058791184067875e-22 0 0 
-2.472532364446264e-05 -3.54963831445291e-06 0 0 2.08449514363363e-22 7.034438995379821e-06 
8.409425638308906e-07 -0.004807997556940175 0 0.006729000433572909 -4.212863622089725e-05 -0.0004325797323374035 
0 1.748167717826733e-05 -1.109988970666711e-05 0.0001606891693102766 0 0 
0 -5.434085450428145e-05 8.470329472543003e-22 4.877444073265119e-05 0 0 
4.812071938045676e-05 -4.247830617400225e-05 1.058791184067875e-21 4.877444073265119e-05 -4.983785344280318e-06 2.329883394627715e-05 
-6.906428966331817e-06 0.0002280512490899401 -0.0002352877971748592 -8.099961714169509e-05 -1.739260193023539e-07 2.745150742053538e-05 
-6.883450233434184e-06 0.0002371301988243725 -0.0002352877971748591 -8.099961714169509e-05 -6.746520788799627e-06 8.016111151912607e-06 
-3.588415835340809e-06 0.0002093428924434375 -0.0002352877971748592 -9.181037960189414e-05 -3.068840072571733e-22 1.624673998105891e-05 
0.0001464651058758328 -0.0004788460811374858 -5.908158870504345e-05 0.0007370505348722884 -1.357623609233137e-06 -0.0001460364426193144 
-0.000226917838391882 -0.003982655668320166 2.064438364740954e-05 0.004740214979191162 0.0001593389363647185 -0.0008273521987121938 
0.0001876736642154281 0.0008215978685076153 -5.762561115524503e-05 -0.002001338781351491 -2.005742447902508e-05 -0.0002767830925392931 
1.018034745514835e-05 -4.334665036163437e-05 5.585260666296447e-05 0.0001426956332078206 -2.153695240183137e-07 -0.0002568018905677194 
8.506772692579155e-05 -4.492418468947287e-05 -0.0001017471391005429 -9.313723992642619e-05 0.0001367150470083848 0.0001166705856770175 
1.654361225106055e-22 7.940933880509066e-23 -2.38228016415272e-22 3.390208048661011e-06 -1.323488980084844e-23 -5.552034010440974e-08 
-6.583954020740468e-07 -0.0002706220302855528 -1.341625016438907e-05 0.0004191280511781049 -8.175259213751352e-07 3.109083180168316e-06 
-8.969182658487218e-06 6.617444900424221e-23 -1.866502799615882e-06 7.595789653182601e-06 4.82401494016128e-06 -1.0065060473532e-06 
-9.789023596097777e-05 0.0008849159958091735 3.71795760518133e-06 -0.001913041444510804 1.432299925641283e-05 8.121903710465623e-05 
5.162172146022003e-05 -9.07894973443241e-06 -1.109988970666712e-05 0.0002632740471819692 -1.547093665033289e-05 5.18428751090637e-06 
-1.429746161638136e-05 7.00350946896852e-07 -2.543918747653773e-07 2.113446465072986e-22 1.069331876353662e-06 2.073443070275269e-06 
0 6.617444900424221e-23 -1.866502799615883e-06 7.595789653182601e-06 0 0 
1.919059021123024e-22 -0.0002051382518710484 -1.341625016438904e-05 0.000468688389486819 -6.617444900424221e-23 2.858736196983264e-21 
7.059488549280731e-06 -1.323488980084844e-22 0 1.058791184067875e-22 -8.019954402009215e-06 -2.766169796210544e-06 
-2.151798872801636e-05 -3.014061404304139e-06 -1.038963375860464e-05 1.046972207806201e-05 -1.066146470755788e-05 2.272888537214732e-05 
2.567243363567657e-05 8.153974846635264e-06 -1.159192557503476e-05 4.983829989688628e-06 7.082129246462495e-06 -0.0002567178638586865 
6.136846255880204e-06 -0.0004638644456675337 -4.836018190990958e-05 0.0004664664984826192 -5.54715091700383e-05 3.398494392262157e-05 
-0.0006353335190659552 9.179259297324832e-05 0.0004092685195850753 -0.0007480266358272862 -2.076043694928245e-05 0.0001590055206873484 
6.119006550743093e-05 -0.0003397186824922278 -3.360014752813203e-05 0.0003077585711109135 1.22571677491889e-05 8.262980982419435e-05 
-2.400666146902602e-05 1.405032557329034e-05 -1.029898350872423e-06 -3.00714783324783e-05 1.863126002745434e-05 -1.86577553348812e-06 
-3.558184907923319e-06 -0.000291752242298015 2.271257937708785e-05 0.0003342854296553143 -5.427393386288182e-05 8.039542260576781e-05 
7.55712152426199e-06 4.31959994706866e-06 -5.757396237437537e-06 4.487354485685118e-06 -9.567468375467534e-06 -7.441238867369859e-07 
0 0 0 0 0 0 
-1.600610444392622e-05 0 -8.540276011408312e-06 3.744271576682636e-06 1.749882631252121e-05 -5.191361201789481e-06 
-0.0001199909926406371 -7.655093617468888e-05 7.371012557842092e-05 -2.43075949556763e-05 1.764252675448578e-05 3.67965036899267e-05 
-0.0005602059212053235 -0.0002896337096576933 4.03985217101018e-05 0.0002715730441723198 -6.799342226602273e-06 -0.0002959616802902828 
1.571334223884309e-05 1.418815025546393e-05 -9.648892952867428e-07 -2.818566459371834e-05 -8.569199081750272e-06 2.769843000744829e-05 
-4.777674186185224e-05 -1.323928329545131e-05 -3.106326689767209e-06 6.740577126369846e-06 2.088132412185916e-05 -3.308722450212111e-23 
0.000652006271111137 -0.0002098808480002078 -0.0002059107457575971 0.0004373279028604764 -7.109431861494273e-05 -0.001102920817815085 
0.0002243008411899616 -0.001135583057770778 -7.2371714455553e-05 0.001481904570136473 -6.142225134518327e-05 -0.0004424283377386972 
4.770878234652456e-05 0.0002407580589711323 -0.0002461745066448654 -5.796508460527957e-06 6.578332494683695e-06 -0.0002676109687126858 
0.0001859936752127099 0.0001139771661099031 -5.323916801173319e-05 -0.0001470345160917949 -0.0001086525866022256 0.0001268481232502447 
-8.524235572208855e-05 0.0005611302695726929 -0.0008253548590374879 0.0001902984200179239 2.205488155658227e-05 -0.0002270797871369147 
-0.03160177181228849 -0.07236392077393537 0.07984371093654596 -0.1265633094977415 -0.08296347287201515 0.02982466963691452 
-0.1118555223219847 -0.05769936402726288 0.02556533188024352 -0.08356523028557898 -0.06628030192921662 0.06925911868915037 
0.06449041669717488 -0.05993913499039868 0.03140384575941282 -0.08612106862506325 -0.0320660778219377 -0.06393969824710578 
0 0 0 0 0 0 
0 0 0 0 0 0 
0.03365642672924822 -0.1229416670058081 0.08125338710949329 0.04233523676872214 -0.02614102680158467 -0.008578627300624369 
-0.06972258143714191 0.1786677659183658 -0.01044368613468853 -0.03225766953427983 -0.01105359560889769 -0.07654601602615634 
0 0 0 0 0 0 
0 0 0 0 0 0 
0.004497465312261548 -0.05508316629579611 -0.02947849025342215 -0.02610118741363028 -0.02450501563872043 -0.04827377571366732 
4.06534217675228e-05 -0.002538736432957947 -0.0005602118578394873 0.004719946774626966 -1.608688138285677e-05 -0.001179064955443508 
-0.0005198376223115709 -0.0005297575495862806 -0.002924935019879 0.003813730372976598 9.695742127168652e-06 -0.001470458343526596 
-0.00198702244962723 0.0008502759963820133 -0.001155979404324353 0.002531735366034724 1.985271033885096e-05 -0.002343265146965865 
0.0004443907542065342 0.002731772504313694 -0.001030728681058394 -0.004121473851601506 -2.89647610864009e-06 -0.0005741938718280567 
2.887059606964311e-05 0.0003513087762387437 -6.94232597810371e-05 -9.956120659117775e-05 -6.350281406230701e-06 -0.0002656876687707503 
-0.001167374240913256 -0.00445743703705081 -0.0008495439878086961 0.007358863398959831 -2.106100521756852e-05 -0.001107209048424 
0.0001454072028650883 0.0005023550746424965 -0.0001410214367735003 -0.0001590521755064628 -4.924154865161456e-05 -0.001382124545992859 
-0.0003584111813620279 0.003531052932122605 -0.001648272776327686 0.0002930819221065634 -0.0004702838331753821 -9.889655137316915e-05 
1.59894059643078e-06 0.0009582346333515011 -2.398030508217774e-06 -0.001989008079932172 -0.0003218956141299835 5.07201003711255e-05 
-0.0007171548088635152 0.0008750390795855454 -0.0001128733858400628 -0.001876273002312338 -2.317454094006655e-05 -0.0005063927599509475 
-1.518424007852771e-05 -0.0009782823861222538 -0.0001393964737606034 -0.0003524844731149622 -3.162717308594e-05 -0.0004740829975214376 
-0.0007422934948584702 -0.001437940218392759 -0.0001254727116505449 0.003283835981786349 -0.0004959163038162505 -0.0007740930983296404 
-1.355752235347553e-05 0.0006912765046287072 -4.968601146730888e-06 -0.001877432723048766 4.470644868468224e-06 -0.0002509529018452986 
0.00252761142440698 -0.001070614776258533 0.0001386543284681326 0.001375444364118835 -0.001005696614902897 -0.0004513668450846173 
0.001100266399503637 0.0008715306727658446 -0.0002621113131739651 -0.0005547573408572577 -0.001336034672178017 0.0004754137113647622 
5.284758618832116e-05 -0.006272207799979553 -0.0002533281433498267 0.008012991219800952 -0.0003112296075493306 -0.0006319151361549151 
-3.61995840281294e-05 3.486337698980602e-05 -5.229289514418367e-06 -3.081111544975817e-05 1.149423450405136e-05 8.768326127686459e-06 
1.615623339626848e-05 0.0004360250407710479 -0.0009620705895519762 -0.0008327913221023584 -3.657089517290444e-06 6.765181957768414e-06 
1.318770045797381e-05 6.047623011166322e-05 2.04768560637502e-21 0.0001905061956438983 -3.17514070311535e-06 -1.217711752485372e-06 
1.77672670774923e-05 0.0001107055919528231 -0.0001203203456806977 -5.180324903773909e-05 -7.106778690386935e-06 -1.195786494168093e-05 
0 -2.532769457858189e-06 9.926167350636332e-23 1.561380356759072e-05 0 0 
-4.633965821166409e-05 0.0008078255775614681 -0.0009684641004065841 -0.000772432746387602 1.507136484286339e-05 1.579180418517534e-05 
-2.298701248869942e-05 -8.818393146251434e-06 -1.635875509235901e-05 8.05424605661647e-05 -8.175080806593828e-08 5.475517684634796e-06 
-0.0001668889826428016 0.002705689532973492 -9.02051092788061e-05 -0.0002313423438282151 -4.363830030934309e-05 -1.295850061213519e-05 
-3.78700184076954e-05 0.001054790772564049 0.0004790426378630296 -0.004013802706776656 -2.140946533758587e-05 0.0003995776010788372 
-1.237877175585222e-05 0.0003385968547175268 -0.0001128733858400628 -9.011196079755869e-05 2.779326858178173e-22 -0.0005201544690230613 
-0.0006843120758581954 -4.793856406020669e-06 0 3.049318610115481e-20 -3.299922486987547e-05 -0.001171368043966001 
-0.0003421112335282008 -0.0002770146746679198 0.0005697287766567816 -0.0005513608133379649 -9.510136211619155e-05 -0.0005691548332826132 
-2.012633752554824e-05 -2.125287552404335e-05 0 0 -7.610061635487855e-23 2.106792812074509e-05 
0.003085753541310422 -0.0009050264125699699 0.002561985909157268 -0.004294368943931546 -0.0004252801538687339 -0.002010969245369755 
0.000291961429455364 0.0006472714883577742 -0.0007093668089290842 -0.0002673276709040253 -3.36233048062933e-06 -6.45978622179524e-05 
-4.566748702383785e-05 -0.006271269933702261 -0.003309811525575408 0.0127838729781832 8.989510436025788e-06 2.414554935911595e-05 
-3.880828879138739e-05 0.0001290846631792777 -0.001629087970932729 0.003242303444564617 5.303502352729258e-05 1.971947463989842e-05 
-1.355252715606881e-20 -0.001118444852348114 0.0005787832171950791 -0.0006685177516884949 -6.054962083888163e-22 -0.0005341247531332603 
7.315324971686995e-06 -0.0001187889741145982 3.805030817743927e-23 3.903312549927994e-05 -1.588186776101813e-22 -0.000268493481824671 
-3.897675046349866e-21 1.134734307377763e-05 -0.0006685989847617379 0.002513382516783476 -1.257314531080602e-22 -4.092124024321445e-06 
0 0 2.646977960169689e-23 2.506776419268836e-06 0 0 
-2.088478654140475e-06 -0.0001556305579821044 -3.576865757910448e-05 8.856598418496859e-05 -0.0003263662589984502 0.0003249403687355479 
-3.080268041190182e-06 0.0002134349230048008 -1.059623289085163e-05 -3.746754271925503e-05 -3.308722450212111e-23 -0.0005265031771395564 
-4.234892544753222e-06 -0.005482597197175382 -1.74444037019691e-05 0.005773356780387588 -5.574731018793855e-07 -8.834288942066336e-22 
0 -0.000330722816558435 0.0005787832171950791 -0.0003818915240379794 0 0 
0 8.470329472543003e-22 0 0 0 0 
0 0 0 0 0 0 
3.176373552203626e-22 0.0009095575631270752 -2.758486472332546e-06 -0.001988290226117104 0 -1.623027474145581e-05 
0 -0.000408328584111625 0 -2.117582368135751e-20 0 0 
-4.208294719631963e-06 2.117603960823317e-05 -1.018870741126353e-05 -5.669803238698484e-05 -7.832551848473299e-06 1.42387815798637e-05 
1.103027177691263e-05 0.0002138068903182266 9.926167350636332e-23 1.561380356759072e-05 -1.389663429089086e-22 -0.0002805783109409436 
-0.0001827884759436952 -0.0001153307356834421 -0.001652789301981461 0.003877264211501505 9.415244829466894e-05 -0.000951505057704505 
2.300782179184911e-06 -0.000408328584111625 -1.323488980084844e-23 -2.117582368135751e-20 0 0 
0 6.047623011166317e-05 -0.000671340732332366 0.002138595708375613 0 0 
-2.249931266144235e-22 0 0 -5.125443759274366e-05 8.725544512141053e-05 -9.656296430174714e-05 
3.116919945676377e-22 -2.532769457858189e-06 -1.630045168952923e-05 1.465836980956476e-05 -2.088952142487808e-06 -4.055338017006124e-06 
0 0 0 0 0 0 
0 -8.38950735731448e-06 6.452008777913616e-23 -1.157606803554874e-06 1.588186776101813e-21 0 
-1.629917554647598e-05 0 0 0 -2.911675756186657e-22 -0.0002985626118759153 
-0.0003225870514774443 0.006362381087734678 -8.4665843191352e-05 0.001118729624255751 5.099774556045062e-05 0.0001496843458253946 
0 0 0 -5.125443759274366e-05 0 0 
0 0 0 0 0 -0.0003207883041165663 
0.0001360391647365724 -0.0002003784316928552 -1.697013152186838e-05 9.434380467511346e-06 -8.470329472543003e-22 -0.0003955136826304587 
0.0001701683518621004 0.002047234371647633 6.737279207345657e-05 -0.001869944752447911 4.663925708255582e-05 -0.0007086760023766622 
0 -0.0004108613535694833 9.926167350636332e-23 1.561380356759078e-05 0 0 
-0.0001474333228870906 0.0002381343777018365 0.0005603947235510424 -0.0006697071096281828 -0.0007007266858303029 0.00139847716754121 
-0.0002535981053584537 -0.0002953971654621075 0.0005921721877771268 -0.0004730741269147863 1.379855638162957e-05 -0.0005366744218043206 
-0.0001319294508681408 -0.002819939345186589 -0.003324400499543303 0.01069767983816062 0.0001006103116481601 4.307610213439343e-05 
-4.256697645611495e-06 0.000514114075827466 -4.075254795880784e-07 1.273122951437982e-05 7.940933880509066e-23 9.369154441728188e-06 
2.051407919131509e-22 0.0001542735860740871 6.696798323391522e-07 -6.726603401709417e-05 -4.579800903054874e-06 -0.0002710418531951282 
-1.961332540345137e-06 2.957835716463174e-06 3.4114274029678e-06 8.478946709485442e-06 -2.814725300574153e-06 -4.092124024321438e-06 
-3.312743008997176e-05 -2.332649327399538e-22 0 0 -4.785244932200613e-07 1.786746425396209e-05 
0 -0.0001572204846249678 0 8.004638761857629e-05 0 0 
0 -1.985233470127266e-21 0 -1.320341937636572e-05 0 0 
-2.202855947087614e-05 0.0006734784388806928 -0.0001822966456210999 -0.001742709499231268 -1.058791184067875e-22 1.852059771658384e-05 
3.176373552203626e-22 0.0001249192494896193 -3.252933171016954e-06 -0.0001583224824895599 0 -1.623027474145581e-05 
0 0 0 0 0 0 
0 -8.220282964904067e-06 -1.82918542691403e-05 2.727750716795005e-05 0 0 
-1.234990907920903e-05 0 0 0 0 1.786746425396209e-05 
0 -0.001633300099036067 -1.635875509235901e-05 0.001476237484558397 0 -0.0003207883041165663 
0 0 0 0 0 0 
-5.592283921221172e-07 -3.051639606205839e-06 -4.944466986844032e-07 1.126589350372896e-05 1.323488980084844e-22 -6.617444900424221e-23 
-2.012633752554825e-05 -2.125287552404335e-05 7.940933880509066e-23 -2.646977960169689e-23 0 -0.0002885142521457604 
7.934702265487352e-07 0.0008296287153471462 -1.901747396826429e-05 -0.001922681557802456 1.853865454398794e-05 -1.247730614697637e-05 
7.934702265487352e-07 -2.396197417923904e-06 1.323488980084844e-22 2.611432105299444e-06 0 -4.238004429557856e-06 
0 0 0 0 0 0 
0 0 0 0 0 0 
0 0 0 0 0 0 
0 0 0 0 0 0 
0 0 0 0 0 0 
0 0 0 -2.38228016415272e-22 0 0 
-1.120044683073581e-05 6.921571356065378e-05 -4.767234870116889e-06 -8.748685418743487e-06 3.136662536676787e-06 -1.55163737333997e-05 
0 0.0001055369485941247 -0.0001132809113196509 -2.61262936904353e-05 0 2.638706154044158e-22 
0 0 0 0 0 0 
0 0 0 0 0 0 
0 0 0 0 0 0 
0 0 0 0 0 0 
1.644540414627024e-05 -2.532769457858191e-06 9.926167350636332e-23 1.561380356759072e-05 0 -2.646977960169689e-22 
-1.961332540345136e-06 -3.176373552203626e-22 -4.944466986844049e-07 1.103362548823333e-05 1.588186776101813e-22 0 
-0.000659749883240903 -0.0003662489014530477 -0.0003693661095660667 -0.0007087199580024884 0.0001037884365672418 -4.707314510787164e-05 
-6.216848528393898e-06 -3.85032107272142e-06 -6.94232597810371e-05 3.484210021796921e-05 -4.499862532288471e-22 1.18679935863257e-05 
-1.629917554647595e-05 -6.548701285922675e-05 -0.0007234681450038286 0.002411938378272134 -0.0003263662589984502 -0.0005077469962736273 
-2.469759656054048e-05 0.0004914638229385196 3.705769144237564e-22 -0.001675107283768956 -1.78671012311454e-22 -0.000241697489754807 
0 0.0001505896672971627 0 -0.0002589896379405061 0 -4.235164736271502e-22 
0 0 0 0 0 0 
-1.462531170873906e-06 0 -3.897335569020351e-06 0 3.566194138106435e-05 2.646977960169689e-22 
0 -0.0003761969378653684 0 -3.081111544975813e-05 0 0 
0.0001208544298458929 -0.0007822904871020538 -1.635875509235902e-05 -0.0005445418762745 -3.705769144237564e-22 -0.0006490225327079298 
0 -0.00153330377403914 6.452008777913616e-23 0.001375641966946499 0 0 
0 0 0 0 0 0 
-1.271461137953309e-07 3.549069784221395e-06 -6.617444900424221e-24 2.739044434764475e-06 0 0 
0 -0.001809075590110052 0.0005951419722874379 0.0008234866790706789 0 0 
0 -0.0004165488670765292 -4.075254795880784e-07 1.273122951437972e-05 0 0 
0 0.0008426201045766981 0 -0.001957479110667347 0 0 
3.73471114315791e-06 0.0001042298783898357 -6.997321397956641e-05 -7.32949706272258e-05 -3.65708951729044e-06 7.801130036822951e-06 
-0.0001064408054927546 -0.003396779833105574 -0.0007012081915220102 0.005044353657474623 0.000119535525891685 -0.0002744011312124387 
-1.948577883918848e-05 -3.18441718879301e-06 -2.570570638513103e-06 2.611432105299444e-06 2.646977960169689e-23 1.398138675926503e-05 
5.293955920339377e-22 -0.002372965919946148 0 0.003328243866717861 -2.911675756186657e-22 3.308722450212111e-23 
1.720535674110298e-22 8.999725064576941e-22 -1.788432878955224e-05 1.193484554827077e-05 -6.654539692345333e-06 2.378420633055253e-07 
0 -0.002381186202911054 -4.075254795880784e-07 0.003340975096232238 0 0 
0 0 0 0 0 0 
-3.366347172324611e-06 0 0 0 -1.765075602480737e-06 -2.646977960169689e-22 
5.327043144841498e-22 6.352257031324507e-06 0 0 -5.17952821081783e-06 -4.280546338479889e-08 
-0.0006499063121602647 -0.001793697321489029 -0.000184083259635051 0.003329813946900513 0.000526110017969533 -8.155853318544658e-05 
-7.324378354232366e-06 -0.0003289681993488882 -2.277401592842255e-06 -0.0001385042984765538 3.341796443923265e-05 -4.556234648975334e-06 
-4.102815838263017e-22 -0.0004078145846200754 -1.788432878955224e-05 1.056354469384168e-05 -7.903822397965675e-06 -4.523774613273191e-06 
-3.771943593241806e-22 3.565639097756154e-06 -4.944466986844041e-07 4.41650377977104e-06 -5.293955920339377e-23 -3.135609705909619e-06 
-0.0001674403853789137 -0.002381375010431929 -2.275385474122466e-05 0.003336444554150169 8.128375120114498e-05 -5.857755609026332e-05 
-5.293955920339377e-23 0 2.646977960169689e-23 2.506776419268836e-06 -4.785244932200605e-07 -8.834288942066336e-22 
-4.266787153450404e-05 0.0002353108982258498 -5.859254885923294e-06 1.17822518027254e-07 -6.216647468109225e-06 -0.0007970905545916814 
2.159480937535426e-06 0.0001032147752237752 -0.0001332508006625903 -1.588656806497324e-05 1.626713215373285e-05 1.269813581722226e-05 
-0.0001562353371272219 -0.003200347190197837 -0.003277174470701397 0.00982272380874445 5.978195925076621e-05 -0.0002526764977614118 
-0.0008429427004476757 -0.003916290974016854 -0.000983571416189282 0.005817051541687424 0.0002957907972247478 -0.00148734565827893 
-6.386896659696624e-05 -0.0001325940602986951 -1.128943824230793e-05 -2.321615146448076e-05 9.661965997863063e-05 6.352747104407253e-22 
-0.002304485387169458 0.005966348640850722 0.001355335560710523 -0.004288071921642852 0.0005726015150122322 -0.001850480925809324 
-1.985233470127266e-22 2.68964768352857e-05 -0.0009532186436111959 0.001139824655321857 -7.903822397965673e-06 2.378420633055239e-07 
-1.041629164140265e-06 0.0005688098991425754 -0.000671340732332366 0.0003887793994301095 -6.73629050041127e-06 -0.000521774713332899 
-3.34701196770681e-05 -0.001417682021965427 -4.081791369958469e-06 0.00138430593204916 -2.646977960169689e-23 -0.0005966661258774661 
0.0009371377779556323 0.001202377487357943 0.001125849294224778 -0.002529127593238691 0.001280025969038587 -0.00260211692985461 
-1.588186776101813e-22 -0.0004738155969708522 0 7.679021185183298e-05 -4.785244932200605e-07 -3.639594695233322e-23 
-4.089877138890248e-05 0.0003064530969615838 -1.869876113254183e-06 -0.0001668493315585245 1.210217141160924e-05 -0.0002525212554785438 
0 4.235164736271502e-22 -1.635875509235901e-05 8.05424605661647e-05 0 -0.0003207883041165663 
-0.0005798586724229766 8.610419407511241e-06 -5.652952306187391e-21 -4.182005712523241e-05 -3.705769144237564e-22 -0.0009653935343207787 
0 0.0002163396597760847 -1.788432878955224e-05 1.193484554827077e-05 0 -0.0002710418531951282 
3.970466940254533e-23 5.911917515111712e-05 0 8.004638761857629e-05 0 -0.0002710418531951282 
1.454039907664466e-05 -0.001513549557537648 -0.0001230620932513269 0.00134584735357372 -9.829680395460701e-06 -5.217874118737695e-06 
0.0001956107840756899 0.001637432215706554 -1.887169230784916e-05 -0.003404970631188939 -0.0004114395938132113 -0.00109385885029602 
1.61622002871425e-05 -0.0005062454650238109 -2.038811993012729e-05 -0.0008142049199895054 -1.765075602480737e-06 2.133377330629654e-06 
0 -0.001624910591678754 0 0.001383649211419424 0 -0.0003207883041165663 
0 -0.0001572204846249678 0 8.004638761857629e-05 0 0 
-0.0001227124397770092 0.0002605667258690771 0.0004720798790361108 -0.002170785956647286 1.058791184067875e-22 3.337687431168733e-05 
-1.961332540345136e-06 -1.058791184067875e-22 0 2.117582368135751e-22 0 0 
0 0.0001137572315590288 -0.0001128733858400628 -3.885752320481512e-05 0 2.638706154044158e-22 
0 0 0 0 0 0 
1.720535674110298e-22 3.565639097756154e-06 0 -4.110345289193454e-06 -6.654539692345333e-06 2.378420633055253e-07 
0 -2.532769457858189e-06 9.926167350636332e-23 1.561380356759072e-05 0 0 
1.520686223667251e-05 1.104560250983202e-07 -0.0009532186436111962 0.00119187586677859 0 -0.0007980620003089557 
0 0 -1.018870741126353e-05 1.055665359108914e-06 0 1.058791184067875e-22 
-0.0007037933703100599 8.089904065230581e-05 -6.94232597810371e-05 -2.623791583822906e-05 -1.809871180266025e-21 -0.0003201240842900826 
-6.933218805658303e-05 2.658359613140814e-06 -4.944466986844041e-07 8.526849068964484e-06 -6.220398206398768e-22 0 
-5.592283921221172e-07 0 0 0 -5.293955920339377e-23 -3.970466940254533e-23 
-8.999725064576941e-22 0.000506465739330639 0.0005951419722874379 -0.002415355925699966 0 -4.761616676578716e-06 
0.0001545170396565902 -7.698186405641725e-05 -2.012329709645806e-05 9.182702555042028e-06 1.143187585360095e-05 -0.000122562590826594 
2.117582368135751e-22 0.0006121331189082131 -0.0001822966456210999 -0.001665919287379437 0 -2.117582368135751e-21 
-2.336260143730399e-06 -8.220282964904064e-06 -2.805555987805862e-06 1.534266161967927e-05 -2.935973588061295e-05 1.180623614966935e-05 
0 0 0 0 0 0 
-0.0007411202913474922 8.089904065230589e-05 -6.94232597810371e-05 -2.874469225749792e-05 -7.225295311367232e-07 -0.0003273828770712982 
0 3.565639097756152e-06 -1.788432878955224e-05 7.824500259077293e-06 -5.293955920339377e-23 0 
0 0 0 0 0 0 
0 4.235164736271502e-22 -1.635875509235901e-05 8.05424605661647e-05 0 0 
-2.877265042704451e-20 2.032879073410321e-20 0 0 3.57342024622908e-22 -0.0005341247531332603 
0 0.0002163396597760848 0 0 0 -0.0002710418531951282 
0 -0.000408328584111625 0 -2.117582368135751e-20 0 0 
0 8.470329472543003e-22 0 0 0 0 
4.156360152063352e-06 -0.0003361543652460588 0.0005951419722874379 -0.0004578768150326188 1.952146245625145e-22 -4.714132363667137e-07 
3.970466940254533e-23 -0.0004083285841116251 -4.944466986844041e-07 8.526849068964527e-06 -3.79937816827017e-06 3.805030817743927e-23 
0 0 0 0 0 0 
7.934702265487352e-07 -2.396197417923904e-06 0 0 0 -4.238004429557856e-06 
-8.299474558675991e-06 0.0002163396597760848 -3.904292491250291e-22 0 9.10548232896808e-05 -0.0003606965990970105 
-3.480947310728185e-06 0.0002163396597760847 -0.0009532186436111962 0.00118244148631108 -1.03059853587617e-07 -0.0008039878386504125 
8.200513205337293e-06 -2.396928203010334e-06 -2.000871614025914e-06 2.506776419268836e-06 -2.473270031533553e-21 2.516506015438811e-05 
0 0 0 0 0 0 
-0.000721490623279634 -0.0001572204846249677 2.48422826505443e-05 8.004638761857631e-05 -6.297508434162338e-05 -0.0008503234571260916 
0 0 0 0 0 0 
0 0 0 0 0 0 
0 8.999725064576941e-22 -1.788432878955224e-05 1.193484554827077e-05 0 0 
0 7.517417406881916e-21 0 0 0 0 
-0.0007007131022688701 -8.220282964904095e-06 -1.676628057194707e-05 9.588512218584411e-05 0 -0.0003273828770712983 
-0.0007206262123509881 -6.181645355954746e-06 -8.30199174225057e-06 2.985791139071409e-20 8.732183835204321e-22 -0.0003159380886389085 
0 0 0 0 0 0 
1.880303100104965e-05 -4.141692886747249e-06 0 3.202429741499047e-21 -3.299922486987547e-05 1.11841730784658e-05 
-6.555087944776648e-05 -8.220282964904064e-06 -4.075254795880814e-07 1.273122951437982e-05 -2.140946533758584e-05 0.0003892624184455976 
-1.510960111883079e-05 2.269468614755534e-05 -2.244283350196553e-06 9.133179041435751e-06 -1.249282705620299e-06 1.111987871044386e-05 
9.993375775406266e-23 -0.0004083285841116252 -2.244283350196561e-06 -4.212125855130782e-05 7.257731580863491e-07 -4.055338017006124e-06 
0.0004954558502980574 5.669686171835738e-05 -4.944466986844056e-07 0.0001136214207226429 -0.0003358283830034529 -0.001028777582053741 
-0.0009337710406796265 -0.0009825941218233724 -0.0009548611084040305 0.0009769068048548159 0.0003275158678456094 -0.001865415808352783 
-0.0001231050342327403 8.771723976757559e-05 -0.001058340138252994 0.001024725333793993 0.00029425495400639 -0.0001061135505607925 
4.103362478311606e-06 -4.141692886747247e-06 3.308722450212111e-24 0 0 -6.220398206398768e-22 
-0.0003791255237147785 0.000287986647762885 0.00212619085730086 -0.00324284513962816 0.0006232505935817161 -0.000426829204170044 
-8.470329472543003e-22 0.000842620104576698 -1.635875509235901e-05 -0.00187693665010118 9.770936298202617e-05 -9.680080636505275e-05 
-0.0001625847912404521 8.470329472543003e-22 -2.257887648461587e-05 0 0.0001932393199572613 4.30546571293579e-07 
-1.518473489067906e-05 -6.548701285922664e-05 5.252596889711726e-23 7.679021185183298e-05 -2.514629062161204e-22 1.433566653723898e-05 
0.00013176017352115 -0.0002365870094834327 0.001436066999388525 -0.001089516818328559 0.0003298870058996794 -0.0003389849342842991 
